digraph Tree {
node [shape=box, style="filled, rounded", color="black", fontname=helvetica] ;
edge [fontname=helvetica] ;
0 [label="profint <= 0.5\ngini = 0.5\nsamples = 1444\nvalue = [1153, 1142]\nclass = notInterviewed", fillcolor="#fffefd"] ;
1 [label="PREN_MUSULMAN <= 0.5\ngini = 0.5\nsamples = 1060\nvalue = [871, 810]\nclass = notInterviewed", fillcolor="#fdf6f1"] ;
0 -> 1 [labeldistance=2.5, labelangle=45, headlabel="True"] ;
2 [label="CV_qualif <= 0.77\ngini = 0.5\nsamples = 783\nvalue = [602, 649]\nclass = Interviewed", fillcolor="#f1f8fd"] ;
1 -> 2 ;
3 [label="ZouI <= 0.5\ngini = 0.48\nsamples = 405\nvalue = [389, 261]\nclass = notInterviewed", fillcolor="#f6d6be"] ;
2 -> 3 ;
4 [label="CV_experience_ <= 0.86\ngini = 0.5\nsamples = 273\nvalue = [210, 234]\nclass = Interviewed", fillcolor="#ebf5fc"] ;
3 -> 4 ;
5 [label="recherche_TLD <= 0.5\ngini = 0.49\nsamples = 253\nvalue = [185, 227]\nclass = Interviewed", fillcolor="#daedfa"] ;
4 -> 5 ;
6 [label="langue_autres <= 0.5\ngini = 0.5\nsamples = 223\nvalue = [171, 183]\nclass = Interviewed", fillcolor="#f2f9fd"] ;
5 -> 6 ;
7 [label="CV_inactivite <= 0.16\ngini = 0.5\nsamples = 212\nvalue = [165, 169]\nclass = Interviewed", fillcolor="#fafdfe"] ;
6 -> 7 ;
8 [label="dip_aucun <= 0.5\ngini = 0.48\nsamples = 64\nvalue = [63, 40]\nclass = notInterviewed", fillcolor="#f6d1b7"] ;
7 -> 8 ;
9 [label="dip_bac2p <= 0.5\ngini = 0.44\nsamples = 56\nvalue = [63, 30]\nclass = notInterviewed", fillcolor="#f1bd97"] ;
8 -> 9 ;
10 [label="a50p <= 0.5\ngini = 0.5\nsamples = 34\nvalue = [33, 28]\nclass = notInterviewed", fillcolor="#fbece1"] ;
9 -> 10 ;
11 [label="CV_note_4 <= 0.5\ngini = 0.49\nsamples = 28\nvalue = [20, 28]\nclass = Interviewed", fillcolor="#c6e3f8"] ;
10 -> 11 ;
12 [label="CV_note_2 <= 0.5\ngini = 0.5\nsamples = 21\nvalue = [18, 18]\nclass = notInterviewed", fillcolor="#ffffff"] ;
11 -> 12 ;
13 [label="CV_note_3 <= 0.5\ngini = 0.36\nsamples = 7\nvalue = [3, 10]\nclass = Interviewed", fillcolor="#74baed"] ;
12 -> 13 ;
14 [label="gini = 0.0\nsamples = 2\nvalue = [0, 6]\nclass = Interviewed", fillcolor="#399de5"] ;
13 -> 14 ;
15 [label="CV_experience_ <= 0.29\ngini = 0.49\nsamples = 5\nvalue = [3, 4]\nclass = Interviewed", fillcolor="#cee6f8"] ;
13 -> 15 ;
16 [label="gini = 0.0\nsamples = 2\nvalue = [0, 4]\nclass = Interviewed", fillcolor="#399de5"] ;
15 -> 16 ;
17 [label="gini = 0.0\nsamples = 3\nvalue = [3, 0]\nclass = notInterviewed", fillcolor="#e58139"] ;
15 -> 17 ;
18 [label="CV_formation_ <= 0.88\ngini = 0.45\nsamples = 14\nvalue = [15, 8]\nclass = notInterviewed", fillcolor="#f3c4a3"] ;
12 -> 18 ;
19 [label="gini = 0.0\nsamples = 7\nvalue = [14, 0]\nclass = notInterviewed", fillcolor="#e58139"] ;
18 -> 19 ;
20 [label="a26m <= 0.5\ngini = 0.2\nsamples = 7\nvalue = [1, 8]\nclass = Interviewed", fillcolor="#52a9e8"] ;
18 -> 20 ;
21 [label="gini = 0.0\nsamples = 6\nvalue = [0, 8]\nclass = Interviewed", fillcolor="#399de5"] ;
20 -> 21 ;
22 [label="gini = 0.0\nsamples = 1\nvalue = [1, 0]\nclass = notInterviewed", fillcolor="#e58139"] ;
20 -> 22 ;
23 [label="CV_formation_ <= 0.88\ngini = 0.28\nsamples = 7\nvalue = [2, 10]\nclass = Interviewed", fillcolor="#61b1ea"] ;
11 -> 23 ;
24 [label="gini = 0.0\nsamples = 6\nvalue = [0, 10]\nclass = Interviewed", fillcolor="#399de5"] ;
23 -> 24 ;
25 [label="gini = 0.0\nsamples = 1\nvalue = [2, 0]\nclass = notInterviewed", fillcolor="#e58139"] ;
23 -> 25 ;
26 [label="gini = 0.0\nsamples = 6\nvalue = [13, 0]\nclass = notInterviewed", fillcolor="#e58139"] ;
10 -> 26 ;
27 [label="effent_200plus <= 0.5\ngini = 0.12\nsamples = 22\nvalue = [30, 2]\nclass = notInterviewed", fillcolor="#e78946"] ;
9 -> 27 ;
28 [label="gini = 0.0\nsamples = 11\nvalue = [17, 0]\nclass = notInterviewed", fillcolor="#e58139"] ;
27 -> 28 ;
29 [label="CDI <= 0.5\ngini = 0.23\nsamples = 11\nvalue = [13, 2]\nclass = notInterviewed", fillcolor="#e99457"] ;
27 -> 29 ;
30 [label="gini = 0.0\nsamples = 6\nvalue = [9, 0]\nclass = notInterviewed", fillcolor="#e58139"] ;
29 -> 30 ;
31 [label="CV_qualif_sup <= 0.5\ngini = 0.44\nsamples = 5\nvalue = [4, 2]\nclass = notInterviewed", fillcolor="#f2c09c"] ;
29 -> 31 ;
32 [label="gini = 0.0\nsamples = 2\nvalue = [0, 2]\nclass = Interviewed", fillcolor="#399de5"] ;
31 -> 32 ;
33 [label="gini = 0.0\nsamples = 3\nvalue = [4, 0]\nclass = notInterviewed", fillcolor="#e58139"] ;
31 -> 33 ;
34 [label="gini = 0.0\nsamples = 8\nvalue = [0, 10]\nclass = Interviewed", fillcolor="#399de5"] ;
8 -> 34 ;
35 [label="CV_qualif_sup <= 0.5\ngini = 0.49\nsamples = 148\nvalue = [102, 129]\nclass = Interviewed", fillcolor="#d6eafa"] ;
7 -> 35 ;
36 [label="effent_200plus <= 0.5\ngini = 0.5\nsamples = 127\nvalue = [99, 103]\nclass = Interviewed", fillcolor="#f7fbfe"] ;
35 -> 36 ;
37 [label="CDI <= 0.5\ngini = 0.27\nsamples = 11\nvalue = [16, 3]\nclass = notInterviewed", fillcolor="#ea995e"] ;
36 -> 37 ;
38 [label="gini = 0.0\nsamples = 3\nvalue = [6, 0]\nclass = notInterviewed", fillcolor="#e58139"] ;
37 -> 38 ;
39 [label="CV_note_3 <= 0.5\ngini = 0.36\nsamples = 8\nvalue = [10, 3]\nclass = notInterviewed", fillcolor="#eda774"] ;
37 -> 39 ;
40 [label="gini = 0.0\nsamples = 3\nvalue = [5, 0]\nclass = notInterviewed", fillcolor="#e58139"] ;
39 -> 40 ;
41 [label="poste_unique <= 0.5\ngini = 0.47\nsamples = 5\nvalue = [5, 3]\nclass = notInterviewed", fillcolor="#f5cdb0"] ;
39 -> 41 ;
42 [label="gini = 0.0\nsamples = 3\nvalue = [0, 3]\nclass = Interviewed", fillcolor="#399de5"] ;
41 -> 42 ;
43 [label="gini = 0.0\nsamples = 2\nvalue = [5, 0]\nclass = notInterviewed", fillcolor="#e58139"] ;
41 -> 43 ;
44 [label="dip_bac2 <= 0.5\ngini = 0.5\nsamples = 116\nvalue = [83, 100]\nclass = Interviewed", fillcolor="#ddeefb"] ;
36 -> 44 ;
45 [label="dip_bac3p <= 0.5\ngini = 0.5\nsamples = 84\nvalue = [66, 68]\nclass = Interviewed", fillcolor="#f9fcfe"] ;
44 -> 45 ;
46 [label="dip_bac <= 0.5\ngini = 0.49\nsamples = 55\nvalue = [39, 49]\nclass = Interviewed", fillcolor="#d7ebfa"] ;
45 -> 46 ;
47 [label="CDI <= 0.5\ngini = 0.5\nsamples = 28\nvalue = [23, 21]\nclass = notInterviewed", fillcolor="#fdf4ee"] ;
46 -> 47 ;
48 [label="gini = 0.0\nsamples = 4\nvalue = [6, 0]\nclass = notInterviewed", fillcolor="#e58139"] ;
47 -> 48 ;
49 [label="dip_bepcap <= 0.5\ngini = 0.49\nsamples = 24\nvalue = [17, 21]\nclass = Interviewed", fillcolor="#d9ecfa"] ;
47 -> 49 ;
50 [label="gini = 0.0\nsamples = 2\nvalue = [3, 0]\nclass = notInterviewed", fillcolor="#e58139"] ;
49 -> 50 ;
51 [label="poste_unique <= 0.5\ngini = 0.48\nsamples = 22\nvalue = [14, 21]\nclass = Interviewed", fillcolor="#bddef6"] ;
49 -> 51 ;
52 [label="recherche_LD <= 0.5\ngini = 0.5\nsamples = 18\nvalue = [14, 13]\nclass = notInterviewed", fillcolor="#fdf6f1"] ;
51 -> 52 ;
53 [label="a50p <= 0.5\ngini = 0.5\nsamples = 13\nvalue = [9, 11]\nclass = Interviewed", fillcolor="#dbedfa"] ;
52 -> 53 ;
54 [label="a3049 <= 0.5\ngini = 0.49\nsamples = 12\nvalue = [8, 11]\nclass = Interviewed", fillcolor="#c9e4f8"] ;
53 -> 54 ;
55 [label="FEMME <= 0.5\ngini = 0.44\nsamples = 8\nvalue = [4, 8]\nclass = Interviewed", fillcolor="#9ccef2"] ;
54 -> 55 ;
56 [label="gini = 0.0\nsamples = 2\nvalue = [3, 0]\nclass = notInterviewed", fillcolor="#e58139"] ;
55 -> 56 ;
57 [label="eoq <= 0.5\ngini = 0.2\nsamples = 6\nvalue = [1, 8]\nclass = Interviewed", fillcolor="#52a9e8"] ;
55 -> 57 ;
58 [label="gini = 0.0\nsamples = 1\nvalue = [1, 0]\nclass = notInterviewed", fillcolor="#e58139"] ;
57 -> 58 ;
59 [label="gini = 0.0\nsamples = 5\nvalue = [0, 8]\nclass = Interviewed", fillcolor="#399de5"] ;
57 -> 59 ;
60 [label="FEMME <= 0.5\ngini = 0.49\nsamples = 4\nvalue = [4, 3]\nclass = notInterviewed", fillcolor="#f8e0ce"] ;
54 -> 60 ;
61 [label="gini = 0.38\nsamples = 3\nvalue = [1, 3]\nclass = Interviewed", fillcolor="#7bbeee"] ;
60 -> 61 ;
62 [label="gini = 0.0\nsamples = 1\nvalue = [3, 0]\nclass = notInterviewed", fillcolor="#e58139"] ;
60 -> 62 ;
63 [label="gini = 0.0\nsamples = 1\nvalue = [1, 0]\nclass = notInterviewed", fillcolor="#e58139"] ;
53 -> 63 ;
64 [label="a3049 <= 0.5\ngini = 0.41\nsamples = 5\nvalue = [5, 2]\nclass = notInterviewed", fillcolor="#efb388"] ;
52 -> 64 ;
65 [label="SALREV_SMIC_2 <= 0.5\ngini = 0.5\nsamples = 4\nvalue = [2, 2]\nclass = notInterviewed", fillcolor="#ffffff"] ;
64 -> 65 ;
66 [label="gini = 0.0\nsamples = 1\nvalue = [1, 0]\nclass = notInterviewed", fillcolor="#e58139"] ;
65 -> 66 ;
67 [label="a26m <= 0.5\ngini = 0.44\nsamples = 3\nvalue = [1, 2]\nclass = Interviewed", fillcolor="#9ccef2"] ;
65 -> 67 ;
68 [label="gini = 0.0\nsamples = 2\nvalue = [0, 2]\nclass = Interviewed", fillcolor="#399de5"] ;
67 -> 68 ;
69 [label="gini = 0.0\nsamples = 1\nvalue = [1, 0]\nclass = notInterviewed", fillcolor="#e58139"] ;
67 -> 69 ;
70 [label="gini = 0.0\nsamples = 1\nvalue = [3, 0]\nclass = notInterviewed", fillcolor="#e58139"] ;
64 -> 70 ;
71 [label="gini = 0.0\nsamples = 4\nvalue = [0, 8]\nclass = Interviewed", fillcolor="#399de5"] ;
51 -> 71 ;
72 [label="CV_experience_3p <= 0.79\ngini = 0.46\nsamples = 27\nvalue = [16, 28]\nclass = Interviewed", fillcolor="#aad5f4"] ;
46 -> 72 ;
73 [label="service_nm <= 0.5\ngini = 0.44\nsamples = 26\nvalue = [14, 28]\nclass = Interviewed", fillcolor="#9ccef2"] ;
72 -> 73 ;
74 [label="CV_formation_ <= 0.12\ngini = 0.48\nsamples = 20\nvalue = [14, 22]\nclass = Interviewed", fillcolor="#b7dbf6"] ;
73 -> 74 ;
75 [label="service_m <= 0.5\ngini = 0.47\nsamples = 19\nvalue = [13, 22]\nclass = Interviewed", fillcolor="#aed7f4"] ;
74 -> 75 ;
76 [label="recherche_LD <= 0.5\ngini = 0.46\nsamples = 18\nvalue = [12, 22]\nclass = Interviewed", fillcolor="#a5d2f3"] ;
75 -> 76 ;
77 [label="a26m <= 0.5\ngini = 0.36\nsamples = 10\nvalue = [3, 10]\nclass = Interviewed", fillcolor="#74baed"] ;
76 -> 77 ;
78 [label="SALREV_SMIC_2 <= 0.5\ngini = 0.32\nsamples = 4\nvalue = [1, 4]\nclass = Interviewed", fillcolor="#6ab6ec"] ;
77 -> 78 ;
79 [label="gini = 0.0\nsamples = 3\nvalue = [0, 4]\nclass = Interviewed", fillcolor="#399de5"] ;
78 -> 79 ;
80 [label="gini = 0.0\nsamples = 1\nvalue = [1, 0]\nclass = notInterviewed", fillcolor="#e58139"] ;
78 -> 80 ;
81 [label="FEMME <= 0.5\ngini = 0.38\nsamples = 6\nvalue = [2, 6]\nclass = Interviewed", fillcolor="#7bbeee"] ;
77 -> 81 ;
82 [label="gini = 0.0\nsamples = 5\nvalue = [0, 6]\nclass = Interviewed", fillcolor="#399de5"] ;
81 -> 82 ;
83 [label="gini = 0.0\nsamples = 1\nvalue = [2, 0]\nclass = notInterviewed", fillcolor="#e58139"] ;
81 -> 83 ;
84 [label="a3049 <= 0.5\ngini = 0.49\nsamples = 8\nvalue = [9, 12]\nclass = Interviewed", fillcolor="#cee6f8"] ;
76 -> 84 ;
85 [label="a26m <= 0.5\ngini = 0.47\nsamples = 7\nvalue = [7, 12]\nclass = Interviewed", fillcolor="#acd6f4"] ;
84 -> 85 ;
86 [label="gini = 0.42\nsamples = 6\nvalue = [5, 12]\nclass = Interviewed", fillcolor="#8bc6f0"] ;
85 -> 86 ;
87 [label="gini = 0.0\nsamples = 1\nvalue = [2, 0]\nclass = notInterviewed", fillcolor="#e58139"] ;
85 -> 87 ;
88 [label="gini = 0.0\nsamples = 1\nvalue = [2, 0]\nclass = notInterviewed", fillcolor="#e58139"] ;
84 -> 88 ;
89 [label="gini = 0.0\nsamples = 1\nvalue = [1, 0]\nclass = notInterviewed", fillcolor="#e58139"] ;
75 -> 89 ;
90 [label="gini = 0.0\nsamples = 1\nvalue = [1, 0]\nclass = notInterviewed", fillcolor="#e58139"] ;
74 -> 90 ;
91 [label="gini = 0.0\nsamples = 6\nvalue = [0, 6]\nclass = Interviewed", fillcolor="#399de5"] ;
73 -> 91 ;
92 [label="gini = 0.0\nsamples = 1\nvalue = [2, 0]\nclass = notInterviewed", fillcolor="#e58139"] ;
72 -> 92 ;
93 [label="industrie <= 0.5\ngini = 0.48\nsamples = 29\nvalue = [27, 19]\nclass = notInterviewed", fillcolor="#f7dac4"] ;
45 -> 93 ;
94 [label="langue_anglais <= 0.5\ngini = 0.43\nsamples = 19\nvalue = [22, 10]\nclass = notInterviewed", fillcolor="#f1ba93"] ;
93 -> 94 ;
95 [label="gini = 0.0\nsamples = 13\nvalue = [22, 0]\nclass = notInterviewed", fillcolor="#e58139"] ;
94 -> 95 ;
96 [label="gini = 0.0\nsamples = 6\nvalue = [0, 10]\nclass = Interviewed", fillcolor="#399de5"] ;
94 -> 96 ;
97 [label="eoq <= 0.5\ngini = 0.46\nsamples = 10\nvalue = [5, 9]\nclass = Interviewed", fillcolor="#a7d3f3"] ;
93 -> 97 ;
98 [label="SALREV_SMIC_2 <= 0.5\ngini = 0.41\nsamples = 5\nvalue = [2, 5]\nclass = Interviewed", fillcolor="#88c4ef"] ;
97 -> 98 ;
99 [label="gini = 0.0\nsamples = 4\nvalue = [0, 5]\nclass = Interviewed", fillcolor="#399de5"] ;
98 -> 99 ;
100 [label="gini = 0.0\nsamples = 1\nvalue = [2, 0]\nclass = notInterviewed", fillcolor="#e58139"] ;
98 -> 100 ;
101 [label="a26m <= 0.5\ngini = 0.49\nsamples = 5\nvalue = [3, 4]\nclass = Interviewed", fillcolor="#cee6f8"] ;
97 -> 101 ;
102 [label="gini = 0.0\nsamples = 4\nvalue = [0, 4]\nclass = Interviewed", fillcolor="#399de5"] ;
101 -> 102 ;
103 [label="gini = 0.0\nsamples = 1\nvalue = [3, 0]\nclass = notInterviewed", fillcolor="#e58139"] ;
101 -> 103 ;
104 [label="recherche_LD <= 0.5\ngini = 0.45\nsamples = 32\nvalue = [17, 32]\nclass = Interviewed", fillcolor="#a2d1f3"] ;
44 -> 104 ;
105 [label="poste_unique <= 0.5\ngini = 0.49\nsamples = 12\nvalue = [11, 8]\nclass = notInterviewed", fillcolor="#f8ddc9"] ;
104 -> 105 ;
106 [label="a26m <= 0.5\ngini = 0.5\nsamples = 11\nvalue = [9, 8]\nclass = notInterviewed", fillcolor="#fcf1e9"] ;
105 -> 106 ;
107 [label="gini = 0.0\nsamples = 3\nvalue = [4, 0]\nclass = notInterviewed", fillcolor="#e58139"] ;
106 -> 107 ;
108 [label="FEMME <= 0.5\ngini = 0.47\nsamples = 8\nvalue = [5, 8]\nclass = Interviewed", fillcolor="#b5daf5"] ;
106 -> 108 ;
109 [label="SALREV_SMIC_2 <= 0.5\ngini = 0.24\nsamples = 4\nvalue = [1, 6]\nclass = Interviewed", fillcolor="#5aade9"] ;
108 -> 109 ;
110 [label="gini = 0.0\nsamples = 1\nvalue = [1, 0]\nclass = notInterviewed", fillcolor="#e58139"] ;
109 -> 110 ;
111 [label="gini = 0.0\nsamples = 3\nvalue = [0, 6]\nclass = Interviewed", fillcolor="#399de5"] ;
109 -> 111 ;
112 [label="SALREV_SMIC_2 <= 0.5\ngini = 0.44\nsamples = 4\nvalue = [4, 2]\nclass = notInterviewed", fillcolor="#f2c09c"] ;
108 -> 112 ;
113 [label="gini = 0.0\nsamples = 1\nvalue = [1, 0]\nclass = notInterviewed", fillcolor="#e58139"] ;
112 -> 113 ;
114 [label="gini = 0.48\nsamples = 3\nvalue = [3, 2]\nclass = notInterviewed", fillcolor="#f6d5bd"] ;
112 -> 114 ;
115 [label="gini = 0.0\nsamples = 1\nvalue = [2, 0]\nclass = notInterviewed", fillcolor="#e58139"] ;
105 -> 115 ;
116 [label="CNT_sup6m <= 0.5\ngini = 0.32\nsamples = 20\nvalue = [6, 24]\nclass = Interviewed", fillcolor="#6ab6ec"] ;
104 -> 116 ;
117 [label="gini = 0.0\nsamples = 1\nvalue = [1, 0]\nclass = notInterviewed", fillcolor="#e58139"] ;
116 -> 117 ;
118 [label="a3049 <= 0.5\ngini = 0.29\nsamples = 19\nvalue = [5, 24]\nclass = Interviewed", fillcolor="#62b1ea"] ;
116 -> 118 ;
119 [label="FEMME <= 0.5\ngini = 0.3\nsamples = 11\nvalue = [3, 13]\nclass = Interviewed", fillcolor="#67b4eb"] ;
118 -> 119 ;
120 [label="gini = 0.0\nsamples = 2\nvalue = [3, 0]\nclass = notInterviewed", fillcolor="#e58139"] ;
119 -> 120 ;
121 [label="gini = 0.0\nsamples = 9\nvalue = [0, 13]\nclass = Interviewed", fillcolor="#399de5"] ;
119 -> 121 ;
122 [label="CDI <= 0.5\ngini = 0.26\nsamples = 8\nvalue = [2, 11]\nclass = Interviewed", fillcolor="#5dafea"] ;
118 -> 122 ;
123 [label="gini = 0.0\nsamples = 7\nvalue = [0, 11]\nclass = Interviewed", fillcolor="#399de5"] ;
122 -> 123 ;
124 [label="gini = 0.0\nsamples = 1\nvalue = [2, 0]\nclass = notInterviewed", fillcolor="#e58139"] ;
122 -> 124 ;
125 [label="CV_note_4 <= 0.5\ngini = 0.19\nsamples = 21\nvalue = [3, 26]\nclass = Interviewed", fillcolor="#50a8e8"] ;
35 -> 125 ;
126 [label="langue_anglais <= 0.5\ngini = 0.07\nsamples = 20\nvalue = [1, 26]\nclass = Interviewed", fillcolor="#41a1e6"] ;
125 -> 126 ;
127 [label="CV_note_3 <= 0.5\ngini = 0.28\nsamples = 5\nvalue = [1, 5]\nclass = Interviewed", fillcolor="#61b1ea"] ;
126 -> 127 ;
128 [label="gini = 0.0\nsamples = 1\nvalue = [1, 0]\nclass = notInterviewed", fillcolor="#e58139"] ;
127 -> 128 ;
129 [label="gini = 0.0\nsamples = 4\nvalue = [0, 5]\nclass = Interviewed", fillcolor="#399de5"] ;
127 -> 129 ;
130 [label="gini = 0.0\nsamples = 15\nvalue = [0, 21]\nclass = Interviewed", fillcolor="#399de5"] ;
126 -> 130 ;
131 [label="gini = 0.0\nsamples = 1\nvalue = [2, 0]\nclass = notInterviewed", fillcolor="#e58139"] ;
125 -> 131 ;
132 [label="FEMME <= 0.5\ngini = 0.42\nsamples = 11\nvalue = [6, 14]\nclass = Interviewed", fillcolor="#8ec7f0"] ;
6 -> 132 ;
133 [label="dip_bac2p <= 0.5\ngini = 0.22\nsamples = 9\nvalue = [2, 14]\nclass = Interviewed", fillcolor="#55abe9"] ;
132 -> 133 ;
134 [label="gini = 0.0\nsamples = 1\nvalue = [1, 0]\nclass = notInterviewed", fillcolor="#e58139"] ;
133 -> 134 ;
135 [label="CDI <= 0.5\ngini = 0.12\nsamples = 8\nvalue = [1, 14]\nclass = Interviewed", fillcolor="#47a4e7"] ;
133 -> 135 ;
136 [label="gini = 0.0\nsamples = 7\nvalue = [0, 14]\nclass = Interviewed", fillcolor="#399de5"] ;
135 -> 136 ;
137 [label="gini = 0.0\nsamples = 1\nvalue = [1, 0]\nclass = notInterviewed", fillcolor="#e58139"] ;
135 -> 137 ;
138 [label="gini = 0.0\nsamples = 2\nvalue = [4, 0]\nclass = notInterviewed", fillcolor="#e58139"] ;
132 -> 138 ;
139 [label="CV_qualif_sup <= 0.5\ngini = 0.37\nsamples = 30\nvalue = [14, 44]\nclass = Interviewed", fillcolor="#78bced"] ;
5 -> 139 ;
140 [label="CV_note_2 <= 0.5\ngini = 0.5\nsamples = 13\nvalue = [11, 10]\nclass = notInterviewed", fillcolor="#fdf4ed"] ;
139 -> 140 ;
141 [label="CV_inactivite <= 0.16\ngini = 0.48\nsamples = 9\nvalue = [6, 9]\nclass = Interviewed", fillcolor="#bddef6"] ;
140 -> 141 ;
142 [label="dip_bac2p <= 0.5\ngini = 0.22\nsamples = 5\nvalue = [1, 7]\nclass = Interviewed", fillcolor="#55abe9"] ;
141 -> 142 ;
143 [label="gini = 0.0\nsamples = 4\nvalue = [0, 7]\nclass = Interviewed", fillcolor="#399de5"] ;
142 -> 143 ;
144 [label="gini = 0.0\nsamples = 1\nvalue = [1, 0]\nclass = notInterviewed", fillcolor="#e58139"] ;
142 -> 144 ;
145 [label="CV_experience_ <= 0.36\ngini = 0.41\nsamples = 4\nvalue = [5, 2]\nclass = notInterviewed", fillcolor="#efb388"] ;
141 -> 145 ;
146 [label="dip_bac3p <= 0.5\ngini = 0.44\nsamples = 3\nvalue = [4, 2]\nclass = notInterviewed", fillcolor="#f2c09c"] ;
145 -> 146 ;
147 [label="gini = 0.0\nsamples = 2\nvalue = [4, 0]\nclass = notInterviewed", fillcolor="#e58139"] ;
146 -> 147 ;
148 [label="gini = 0.0\nsamples = 1\nvalue = [0, 2]\nclass = Interviewed", fillcolor="#399de5"] ;
146 -> 148 ;
149 [label="gini = 0.0\nsamples = 1\nvalue = [1, 0]\nclass = notInterviewed", fillcolor="#e58139"] ;
145 -> 149 ;
150 [label="CV_experience_3p <= 0.5\ngini = 0.28\nsamples = 4\nvalue = [5, 1]\nclass = notInterviewed", fillcolor="#ea9a61"] ;
140 -> 150 ;
151 [label="gini = 0.0\nsamples = 3\nvalue = [5, 0]\nclass = notInterviewed", fillcolor="#e58139"] ;
150 -> 151 ;
152 [label="gini = 0.0\nsamples = 1\nvalue = [0, 1]\nclass = Interviewed", fillcolor="#399de5"] ;
150 -> 152 ;
153 [label="a50p <= 0.5\ngini = 0.15\nsamples = 17\nvalue = [3, 34]\nclass = Interviewed", fillcolor="#4aa6e7"] ;
139 -> 153 ;
154 [label="SALREV_SMIC_2 <= 0.5\ngini = 0.23\nsamples = 10\nvalue = [3, 20]\nclass = Interviewed", fillcolor="#57ace9"] ;
153 -> 154 ;
155 [label="CV_note_4 <= 0.5\ngini = 0.32\nsamples = 6\nvalue = [3, 12]\nclass = Interviewed", fillcolor="#6ab6ec"] ;
154 -> 155 ;
156 [label="gini = 0.0\nsamples = 1\nvalue = [3, 0]\nclass = notInterviewed", fillcolor="#e58139"] ;
155 -> 156 ;
157 [label="gini = 0.0\nsamples = 5\nvalue = [0, 12]\nclass = Interviewed", fillcolor="#399de5"] ;
155 -> 157 ;
158 [label="gini = 0.0\nsamples = 4\nvalue = [0, 8]\nclass = Interviewed", fillcolor="#399de5"] ;
154 -> 158 ;
159 [label="gini = 0.0\nsamples = 7\nvalue = [0, 14]\nclass = Interviewed", fillcolor="#399de5"] ;
153 -> 159 ;
160 [label="dip_bac2p <= 0.5\ngini = 0.34\nsamples = 20\nvalue = [25, 7]\nclass = notInterviewed", fillcolor="#eca470"] ;
4 -> 160 ;
161 [label="effent_200plus <= 0.5\ngini = 0.5\nsamples = 10\nvalue = [8, 7]\nclass = notInterviewed", fillcolor="#fcefe6"] ;
160 -> 161 ;
162 [label="gini = 0.0\nsamples = 3\nvalue = [3, 0]\nclass = notInterviewed", fillcolor="#e58139"] ;
161 -> 162 ;
163 [label="CDI <= 0.5\ngini = 0.49\nsamples = 7\nvalue = [5, 7]\nclass = Interviewed", fillcolor="#c6e3f8"] ;
161 -> 163 ;
164 [label="gini = 0.0\nsamples = 1\nvalue = [2, 0]\nclass = notInterviewed", fillcolor="#e58139"] ;
163 -> 164 ;
165 [label="eoq <= 0.5\ngini = 0.42\nsamples = 6\nvalue = [3, 7]\nclass = Interviewed", fillcolor="#8ec7f0"] ;
163 -> 165 ;
166 [label="gini = 0.0\nsamples = 1\nvalue = [1, 0]\nclass = notInterviewed", fillcolor="#e58139"] ;
165 -> 166 ;
167 [label="CV_qualif_sup <= 0.5\ngini = 0.35\nsamples = 5\nvalue = [2, 7]\nclass = Interviewed", fillcolor="#72b9ec"] ;
165 -> 167 ;
168 [label="gini = 0.0\nsamples = 1\nvalue = [2, 0]\nclass = notInterviewed", fillcolor="#e58139"] ;
167 -> 168 ;
169 [label="gini = 0.0\nsamples = 4\nvalue = [0, 7]\nclass = Interviewed", fillcolor="#399de5"] ;
167 -> 169 ;
170 [label="gini = 0.0\nsamples = 10\nvalue = [17, 0]\nclass = notInterviewed", fillcolor="#e58139"] ;
160 -> 170 ;
171 [label="dip_aucun <= 0.5\ngini = 0.23\nsamples = 132\nvalue = [179, 27]\nclass = notInterviewed", fillcolor="#e99457"] ;
3 -> 171 ;
172 [label="CDI <= 0.5\ngini = 0.16\nsamples = 112\nvalue = [153, 15]\nclass = notInterviewed", fillcolor="#e88d4c"] ;
171 -> 172 ;
173 [label="ZUS_CUCS <= 0.5\ngini = 0.26\nsamples = 63\nvalue = [82, 15]\nclass = notInterviewed", fillcolor="#ea985d"] ;
172 -> 173 ;
174 [label="gini = 0.0\nsamples = 25\nvalue = [45, 0]\nclass = notInterviewed", fillcolor="#e58139"] ;
173 -> 174 ;
175 [label="CV_qualif_sup <= 0.5\ngini = 0.41\nsamples = 38\nvalue = [37, 15]\nclass = notInterviewed", fillcolor="#f0b489"] ;
173 -> 175 ;
176 [label="CV_experience_ <= 0.07\ngini = 0.46\nsamples = 30\nvalue = [26, 15]\nclass = notInterviewed", fillcolor="#f4caab"] ;
175 -> 176 ;
177 [label="CNT_sup6m <= 0.5\ngini = 0.5\nsamples = 21\nvalue = [14, 15]\nclass = Interviewed", fillcolor="#f2f8fd"] ;
176 -> 177 ;
178 [label="poste_unique <= 0.5\ngini = 0.49\nsamples = 10\nvalue = [5, 7]\nclass = Interviewed", fillcolor="#c6e3f8"] ;
177 -> 178 ;
179 [label="dip_bac2p <= 0.5\ngini = 0.5\nsamples = 6\nvalue = [4, 4]\nclass = notInterviewed", fillcolor="#ffffff"] ;
178 -> 179 ;
180 [label="gini = 0.0\nsamples = 2\nvalue = [3, 0]\nclass = notInterviewed", fillcolor="#e58139"] ;
179 -> 180 ;
181 [label="FEMME <= 0.5\ngini = 0.32\nsamples = 4\nvalue = [1, 4]\nclass = Interviewed", fillcolor="#6ab6ec"] ;
179 -> 181 ;
182 [label="gini = 0.0\nsamples = 1\nvalue = [1, 0]\nclass = notInterviewed", fillcolor="#e58139"] ;
181 -> 182 ;
183 [label="gini = 0.0\nsamples = 3\nvalue = [0, 4]\nclass = Interviewed", fillcolor="#399de5"] ;
181 -> 183 ;
184 [label="SALREV_SMIC_2 <= 0.5\ngini = 0.38\nsamples = 4\nvalue = [1, 3]\nclass = Interviewed", fillcolor="#7bbeee"] ;
178 -> 184 ;
185 [label="gini = 0.0\nsamples = 1\nvalue = [1, 0]\nclass = notInterviewed", fillcolor="#e58139"] ;
184 -> 185 ;
186 [label="gini = 0.0\nsamples = 3\nvalue = [0, 3]\nclass = Interviewed", fillcolor="#399de5"] ;
184 -> 186 ;
187 [label="dip_bac2 <= 0.5\ngini = 0.5\nsamples = 11\nvalue = [9, 8]\nclass = notInterviewed", fillcolor="#fcf1e9"] ;
177 -> 187 ;
188 [label="recherche_LD <= 0.5\ngini = 0.49\nsamples = 9\nvalue = [6, 8]\nclass = Interviewed", fillcolor="#cee6f8"] ;
187 -> 188 ;
189 [label="FEMME <= 0.5\ngini = 0.44\nsamples = 8\nvalue = [4, 8]\nclass = Interviewed", fillcolor="#9ccef2"] ;
188 -> 189 ;
190 [label="gini = 0.0\nsamples = 2\nvalue = [2, 0]\nclass = notInterviewed", fillcolor="#e58139"] ;
189 -> 190 ;
191 [label="dip_bepcap <= 0.5\ngini = 0.32\nsamples = 6\nvalue = [2, 8]\nclass = Interviewed", fillcolor="#6ab6ec"] ;
189 -> 191 ;
192 [label="a3049 <= 0.5\ngini = 0.44\nsamples = 3\nvalue = [2, 4]\nclass = Interviewed", fillcolor="#9ccef2"] ;
191 -> 192 ;
193 [label="gini = 0.0\nsamples = 1\nvalue = [2, 0]\nclass = notInterviewed", fillcolor="#e58139"] ;
192 -> 193 ;
194 [label="gini = 0.0\nsamples = 2\nvalue = [0, 4]\nclass = Interviewed", fillcolor="#399de5"] ;
192 -> 194 ;
195 [label="gini = 0.0\nsamples = 3\nvalue = [0, 4]\nclass = Interviewed", fillcolor="#399de5"] ;
191 -> 195 ;
196 [label="gini = 0.0\nsamples = 1\nvalue = [2, 0]\nclass = notInterviewed", fillcolor="#e58139"] ;
188 -> 196 ;
197 [label="gini = 0.0\nsamples = 2\nvalue = [3, 0]\nclass = notInterviewed", fillcolor="#e58139"] ;
187 -> 197 ;
198 [label="gini = 0.0\nsamples = 9\nvalue = [12, 0]\nclass = notInterviewed", fillcolor="#e58139"] ;
176 -> 198 ;
199 [label="gini = 0.0\nsamples = 8\nvalue = [11, 0]\nclass = notInterviewed", fillcolor="#e58139"] ;
175 -> 199 ;
200 [label="gini = 0.0\nsamples = 49\nvalue = [71, 0]\nclass = notInterviewed", fillcolor="#e58139"] ;
172 -> 200 ;
201 [label="CNT_sup6m <= 0.5\ngini = 0.43\nsamples = 20\nvalue = [26, 12]\nclass = notInterviewed", fillcolor="#f1bb94"] ;
171 -> 201 ;
202 [label="gini = 0.0\nsamples = 4\nvalue = [0, 8]\nclass = Interviewed", fillcolor="#399de5"] ;
201 -> 202 ;
203 [label="CV_experience_ <= 0.07\ngini = 0.23\nsamples = 16\nvalue = [26, 4]\nclass = notInterviewed", fillcolor="#e99457"] ;
201 -> 203 ;
204 [label="a3049 <= 0.5\ngini = 0.38\nsamples = 9\nvalue = [12, 4]\nclass = notInterviewed", fillcolor="#eeab7b"] ;
203 -> 204 ;
205 [label="ZUS_CUCS <= 0.5\ngini = 0.44\nsamples = 4\nvalue = [2, 4]\nclass = Interviewed", fillcolor="#9ccef2"] ;
204 -> 205 ;
206 [label="gini = 0.0\nsamples = 2\nvalue = [0, 4]\nclass = Interviewed", fillcolor="#399de5"] ;
205 -> 206 ;
207 [label="gini = 0.0\nsamples = 2\nvalue = [2, 0]\nclass = notInterviewed", fillcolor="#e58139"] ;
205 -> 207 ;
208 [label="gini = 0.0\nsamples = 5\nvalue = [10, 0]\nclass = notInterviewed", fillcolor="#e58139"] ;
204 -> 208 ;
209 [label="gini = 0.0\nsamples = 7\nvalue = [14, 0]\nclass = notInterviewed", fillcolor="#e58139"] ;
203 -> 209 ;
210 [label="CNT_sup6m <= 0.5\ngini = 0.46\nsamples = 378\nvalue = [213, 388]\nclass = Interviewed", fillcolor="#a6d3f3"] ;
2 -> 210 ;
211 [label="poste_unique <= 0.5\ngini = 0.36\nsamples = 89\nvalue = [34, 112]\nclass = Interviewed", fillcolor="#75bbed"] ;
210 -> 211 ;
212 [label="SALREV_SMIC_2 <= 0.5\ngini = 0.28\nsamples = 5\nvalue = [2, 10]\nclass = Interviewed", fillcolor="#61b1ea"] ;
211 -> 212 ;
213 [label="gini = 0.0\nsamples = 1\nvalue = [2, 0]\nclass = notInterviewed", fillcolor="#e58139"] ;
212 -> 213 ;
214 [label="gini = 0.0\nsamples = 4\nvalue = [0, 10]\nclass = Interviewed", fillcolor="#399de5"] ;
212 -> 214 ;
215 [label="industrie <= 0.5\ngini = 0.36\nsamples = 84\nvalue = [32, 102]\nclass = Interviewed", fillcolor="#77bced"] ;
211 -> 215 ;
216 [label="CV_note_2 <= 0.5\ngini = 0.36\nsamples = 83\nvalue = [31, 102]\nclass = Interviewed", fillcolor="#75bbed"] ;
215 -> 216 ;
217 [label="CV_experience_3p <= 0.5\ngini = 0.34\nsamples = 78\nvalue = [27, 99]\nclass = Interviewed", fillcolor="#6fb8ec"] ;
216 -> 217 ;
218 [label="dip_bac3p <= 0.5\ngini = 0.44\nsamples = 22\nvalue = [11, 23]\nclass = Interviewed", fillcolor="#98ccf1"] ;
217 -> 218 ;
219 [label="a3049 <= 0.5\ngini = 0.38\nsamples = 21\nvalue = [8, 23]\nclass = Interviewed", fillcolor="#7ebfee"] ;
218 -> 219 ;
220 [label="ZouI <= 0.5\ngini = 0.31\nsamples = 13\nvalue = [4, 17]\nclass = Interviewed", fillcolor="#68b4eb"] ;
219 -> 220 ;
221 [label="eoq <= 0.5\ngini = 0.3\nsamples = 8\nvalue = [2, 9]\nclass = Interviewed", fillcolor="#65b3eb"] ;
220 -> 221 ;
222 [label="gini = 0.0\nsamples = 6\nvalue = [0, 9]\nclass = Interviewed", fillcolor="#399de5"] ;
221 -> 222 ;
223 [label="gini = 0.0\nsamples = 2\nvalue = [2, 0]\nclass = notInterviewed", fillcolor="#e58139"] ;
221 -> 223 ;
224 [label="recherche_LD <= 0.5\ngini = 0.32\nsamples = 5\nvalue = [2, 8]\nclass = Interviewed", fillcolor="#6ab6ec"] ;
220 -> 224 ;
225 [label="gini = 0.0\nsamples = 1\nvalue = [2, 0]\nclass = notInterviewed", fillcolor="#e58139"] ;
224 -> 225 ;
226 [label="gini = 0.0\nsamples = 4\nvalue = [0, 8]\nclass = Interviewed", fillcolor="#399de5"] ;
224 -> 226 ;
227 [label="service_nm <= 0.5\ngini = 0.48\nsamples = 8\nvalue = [4, 6]\nclass = Interviewed", fillcolor="#bddef6"] ;
219 -> 227 ;
228 [label="eoq <= 0.5\ngini = 0.38\nsamples = 6\nvalue = [2, 6]\nclass = Interviewed", fillcolor="#7bbeee"] ;
227 -> 228 ;
229 [label="gini = 0.0\nsamples = 1\nvalue = [1, 0]\nclass = notInterviewed", fillcolor="#e58139"] ;
228 -> 229 ;
230 [label="service_m <= 0.5\ngini = 0.24\nsamples = 5\nvalue = [1, 6]\nclass = Interviewed", fillcolor="#5aade9"] ;
228 -> 230 ;
231 [label="gini = 0.0\nsamples = 1\nvalue = [1, 0]\nclass = notInterviewed", fillcolor="#e58139"] ;
230 -> 231 ;
232 [label="gini = 0.0\nsamples = 4\nvalue = [0, 6]\nclass = Interviewed", fillcolor="#399de5"] ;
230 -> 232 ;
233 [label="gini = 0.0\nsamples = 2\nvalue = [2, 0]\nclass = notInterviewed", fillcolor="#e58139"] ;
227 -> 233 ;
234 [label="gini = 0.0\nsamples = 1\nvalue = [3, 0]\nclass = notInterviewed", fillcolor="#e58139"] ;
218 -> 234 ;
235 [label="ZouI <= 0.5\ngini = 0.29\nsamples = 56\nvalue = [16, 76]\nclass = Interviewed", fillcolor="#63b2ea"] ;
217 -> 235 ;
236 [label="FEMME <= 0.5\ngini = 0.37\nsamples = 35\nvalue = [15, 47]\nclass = Interviewed", fillcolor="#78bced"] ;
235 -> 236 ;
237 [label="dip_bac <= 0.5\ngini = 0.21\nsamples = 23\nvalue = [5, 37]\nclass = Interviewed", fillcolor="#54aae9"] ;
236 -> 237 ;
238 [label="dip_bac3p <= 0.5\ngini = 0.26\nsamples = 18\nvalue = [5, 28]\nclass = Interviewed", fillcolor="#5caeea"] ;
237 -> 238 ;
239 [label="eoq <= 0.5\ngini = 0.22\nsamples = 17\nvalue = [4, 28]\nclass = Interviewed", fillcolor="#55abe9"] ;
238 -> 239 ;
240 [label="gini = 0.0\nsamples = 1\nvalue = [1, 0]\nclass = notInterviewed", fillcolor="#e58139"] ;
239 -> 240 ;
241 [label="SALREV_SMIC_2 <= 0.5\ngini = 0.17\nsamples = 16\nvalue = [3, 28]\nclass = Interviewed", fillcolor="#4ea8e8"] ;
239 -> 241 ;
242 [label="gini = 0.0\nsamples = 10\nvalue = [0, 17]\nclass = Interviewed", fillcolor="#399de5"] ;
241 -> 242 ;
243 [label="a50p <= 0.5\ngini = 0.34\nsamples = 6\nvalue = [3, 11]\nclass = Interviewed", fillcolor="#6fb8ec"] ;
241 -> 243 ;
244 [label="gini = 0.0\nsamples = 5\nvalue = [0, 11]\nclass = Interviewed", fillcolor="#399de5"] ;
243 -> 244 ;
245 [label="gini = 0.0\nsamples = 1\nvalue = [3, 0]\nclass = notInterviewed", fillcolor="#e58139"] ;
243 -> 245 ;
246 [label="gini = 0.0\nsamples = 1\nvalue = [1, 0]\nclass = notInterviewed", fillcolor="#e58139"] ;
238 -> 246 ;
247 [label="gini = 0.0\nsamples = 5\nvalue = [0, 9]\nclass = Interviewed", fillcolor="#399de5"] ;
237 -> 247 ;
248 [label="CV_note_4 <= 0.5\ngini = 0.5\nsamples = 12\nvalue = [10, 10]\nclass = notInterviewed", fillcolor="#ffffff"] ;
236 -> 248 ;
249 [label="gini = 0.0\nsamples = 5\nvalue = [7, 0]\nclass = notInterviewed", fillcolor="#e58139"] ;
248 -> 249 ;
250 [label="dip_bac <= 0.5\ngini = 0.36\nsamples = 7\nvalue = [3, 10]\nclass = Interviewed", fillcolor="#74baed"] ;
248 -> 250 ;
251 [label="gini = 0.0\nsamples = 1\nvalue = [3, 0]\nclass = notInterviewed", fillcolor="#e58139"] ;
250 -> 251 ;
252 [label="gini = 0.0\nsamples = 6\nvalue = [0, 10]\nclass = Interviewed", fillcolor="#399de5"] ;
250 -> 252 ;
253 [label="CV_note_4 <= 0.5\ngini = 0.06\nsamples = 21\nvalue = [1, 29]\nclass = Interviewed", fillcolor="#40a0e6"] ;
235 -> 253 ;
254 [label="gini = 0.0\nsamples = 1\nvalue = [1, 0]\nclass = notInterviewed", fillcolor="#e58139"] ;
253 -> 254 ;
255 [label="gini = 0.0\nsamples = 20\nvalue = [0, 29]\nclass = Interviewed", fillcolor="#399de5"] ;
253 -> 255 ;
256 [label="a3049 <= 0.5\ngini = 0.49\nsamples = 5\nvalue = [4, 3]\nclass = notInterviewed", fillcolor="#f8e0ce"] ;
216 -> 256 ;
257 [label="gini = 0.0\nsamples = 2\nvalue = [4, 0]\nclass = notInterviewed", fillcolor="#e58139"] ;
256 -> 257 ;
258 [label="gini = 0.0\nsamples = 3\nvalue = [0, 3]\nclass = Interviewed", fillcolor="#399de5"] ;
256 -> 258 ;
259 [label="gini = 0.0\nsamples = 1\nvalue = [1, 0]\nclass = notInterviewed", fillcolor="#e58139"] ;
215 -> 259 ;
260 [label="a26m <= 0.5\ngini = 0.48\nsamples = 289\nvalue = [179, 276]\nclass = Interviewed", fillcolor="#b9ddf6"] ;
210 -> 260 ;
261 [label="service_nm <= 0.5\ngini = 0.46\nsamples = 209\nvalue = [118, 204]\nclass = Interviewed", fillcolor="#acd6f4"] ;
260 -> 261 ;
262 [label="construction <= 0.5\ngini = 0.49\nsamples = 124\nvalue = [85, 104]\nclass = Interviewed", fillcolor="#dbedfa"] ;
261 -> 262 ;
263 [label="industrie <= 0.5\ngini = 0.5\nsamples = 118\nvalue = [85, 96]\nclass = Interviewed", fillcolor="#e8f4fc"] ;
262 -> 263 ;
264 [label="CV_experience_ <= 0.86\ngini = 0.5\nsamples = 85\nvalue = [68, 62]\nclass = notInterviewed", fillcolor="#fdf4ee"] ;
263 -> 264 ;
265 [label="CV_note_4 <= 0.5\ngini = 0.47\nsamples = 33\nvalue = [32, 20]\nclass = notInterviewed", fillcolor="#f5d0b5"] ;
264 -> 265 ;
266 [label="a3049 <= 0.5\ngini = 0.5\nsamples = 25\nvalue = [21, 20]\nclass = notInterviewed", fillcolor="#fef9f6"] ;
265 -> 266 ;
267 [label="langue_autres <= 0.5\ngini = 0.38\nsamples = 14\nvalue = [5, 15]\nclass = Interviewed", fillcolor="#7bbeee"] ;
266 -> 267 ;
268 [label="dip_bepcap <= 0.5\ngini = 0.21\nsamples = 12\nvalue = [2, 15]\nclass = Interviewed", fillcolor="#53aae8"] ;
267 -> 268 ;
269 [label="a50p <= 0.5\ngini = 0.12\nsamples = 11\nvalue = [1, 15]\nclass = Interviewed", fillcolor="#46a4e7"] ;
268 -> 269 ;
270 [label="gini = 0.0\nsamples = 8\nvalue = [0, 13]\nclass = Interviewed", fillcolor="#399de5"] ;
269 -> 270 ;
271 [label="CV_note_2 <= 0.5\ngini = 0.44\nsamples = 3\nvalue = [1, 2]\nclass = Interviewed", fillcolor="#9ccef2"] ;
269 -> 271 ;
272 [label="gini = 0.0\nsamples = 1\nvalue = [1, 0]\nclass = notInterviewed", fillcolor="#e58139"] ;
271 -> 272 ;
273 [label="gini = 0.0\nsamples = 2\nvalue = [0, 2]\nclass = Interviewed", fillcolor="#399de5"] ;
271 -> 273 ;
274 [label="gini = 0.0\nsamples = 1\nvalue = [1, 0]\nclass = notInterviewed", fillcolor="#e58139"] ;
268 -> 274 ;
275 [label="gini = 0.0\nsamples = 2\nvalue = [3, 0]\nclass = notInterviewed", fillcolor="#e58139"] ;
267 -> 275 ;
276 [label="dip_aucun <= 0.5\ngini = 0.36\nsamples = 11\nvalue = [16, 5]\nclass = notInterviewed", fillcolor="#eda877"] ;
266 -> 276 ;
277 [label="gini = 0.0\nsamples = 9\nvalue = [16, 0]\nclass = notInterviewed", fillcolor="#e58139"] ;
276 -> 277 ;
278 [label="gini = 0.0\nsamples = 2\nvalue = [0, 5]\nclass = Interviewed", fillcolor="#399de5"] ;
276 -> 278 ;
279 [label="gini = 0.0\nsamples = 8\nvalue = [11, 0]\nclass = notInterviewed", fillcolor="#e58139"] ;
265 -> 279 ;
280 [label="CDI <= 0.5\ngini = 0.5\nsamples = 52\nvalue = [36, 42]\nclass = Interviewed", fillcolor="#e3f1fb"] ;
264 -> 280 ;
281 [label="dip_bac2 <= 0.5\ngini = 0.17\nsamples = 7\nvalue = [1, 10]\nclass = Interviewed", fillcolor="#4da7e8"] ;
280 -> 281 ;
282 [label="gini = 0.0\nsamples = 2\nvalue = [0, 2]\nclass = Interviewed", fillcolor="#399de5"] ;
281 -> 282 ;
283 [label="CV_formation_ <= 0.62\ngini = 0.2\nsamples = 5\nvalue = [1, 8]\nclass = Interviewed", fillcolor="#52a9e8"] ;
281 -> 283 ;
284 [label="gini = 0.0\nsamples = 4\nvalue = [0, 8]\nclass = Interviewed", fillcolor="#399de5"] ;
283 -> 284 ;
285 [label="gini = 0.0\nsamples = 1\nvalue = [1, 0]\nclass = notInterviewed", fillcolor="#e58139"] ;
283 -> 285 ;
286 [label="recherche_TLD <= 0.5\ngini = 0.5\nsamples = 45\nvalue = [35, 32]\nclass = notInterviewed", fillcolor="#fdf4ee"] ;
280 -> 286 ;
287 [label="eoq <= 0.5\ngini = 0.49\nsamples = 37\nvalue = [32, 25]\nclass = notInterviewed", fillcolor="#f9e3d4"] ;
286 -> 287 ;
288 [label="dip_bac2p <= 0.5\ngini = 0.41\nsamples = 14\nvalue = [6, 15]\nclass = Interviewed", fillcolor="#88c4ef"] ;
287 -> 288 ;
289 [label="gini = 0.0\nsamples = 3\nvalue = [3, 0]\nclass = notInterviewed", fillcolor="#e58139"] ;
288 -> 289 ;
290 [label="FEMME <= 0.5\ngini = 0.28\nsamples = 11\nvalue = [3, 15]\nclass = Interviewed", fillcolor="#61b1ea"] ;
288 -> 290 ;
291 [label="dip_bac2 <= 0.5\ngini = 0.21\nsamples = 10\nvalue = [2, 15]\nclass = Interviewed", fillcolor="#53aae8"] ;
290 -> 291 ;
292 [label="gini = 0.2\nsamples = 6\nvalue = [1, 8]\nclass = Interviewed", fillcolor="#52a9e8"] ;
291 -> 292 ;
293 [label="ZouI <= 0.5\ngini = 0.22\nsamples = 4\nvalue = [1, 7]\nclass = Interviewed", fillcolor="#55abe9"] ;
291 -> 293 ;
294 [label="gini = 0.0\nsamples = 1\nvalue = [1, 0]\nclass = notInterviewed", fillcolor="#e58139"] ;
293 -> 294 ;
295 [label="gini = 0.0\nsamples = 3\nvalue = [0, 7]\nclass = Interviewed", fillcolor="#399de5"] ;
293 -> 295 ;
296 [label="gini = 0.0\nsamples = 1\nvalue = [1, 0]\nclass = notInterviewed", fillcolor="#e58139"] ;
290 -> 296 ;
297 [label="dip_bac3p <= 0.5\ngini = 0.4\nsamples = 23\nvalue = [26, 10]\nclass = notInterviewed", fillcolor="#efb185"] ;
287 -> 297 ;
298 [label="ZouI <= 0.5\ngini = 0.41\nsamples = 22\nvalue = [25, 10]\nclass = notInterviewed", fillcolor="#efb388"] ;
297 -> 298 ;
299 [label="recherche_LD <= 0.5\ngini = 0.49\nsamples = 14\nvalue = [14, 10]\nclass = notInterviewed", fillcolor="#f8dbc6"] ;
298 -> 299 ;
300 [label="gini = 0.0\nsamples = 7\nvalue = [13, 0]\nclass = notInterviewed", fillcolor="#e58139"] ;
299 -> 300 ;
301 [label="CV_note_5 <= 0.5\ngini = 0.17\nsamples = 7\nvalue = [1, 10]\nclass = Interviewed", fillcolor="#4da7e8"] ;
299 -> 301 ;
302 [label="gini = 0.0\nsamples = 4\nvalue = [0, 6]\nclass = Interviewed", fillcolor="#399de5"] ;
301 -> 302 ;
303 [label="dip_bac2p <= 0.5\ngini = 0.32\nsamples = 3\nvalue = [1, 4]\nclass = Interviewed", fillcolor="#6ab6ec"] ;
301 -> 303 ;
304 [label="gini = 0.0\nsamples = 2\nvalue = [0, 4]\nclass = Interviewed", fillcolor="#399de5"] ;
303 -> 304 ;
305 [label="gini = 0.0\nsamples = 1\nvalue = [1, 0]\nclass = notInterviewed", fillcolor="#e58139"] ;
303 -> 305 ;
306 [label="gini = 0.0\nsamples = 8\nvalue = [11, 0]\nclass = notInterviewed", fillcolor="#e58139"] ;
298 -> 306 ;
307 [label="gini = 0.0\nsamples = 1\nvalue = [1, 0]\nclass = notInterviewed", fillcolor="#e58139"] ;
297 -> 307 ;
308 [label="dip_bepcap <= 0.5\ngini = 0.42\nsamples = 8\nvalue = [3, 7]\nclass = Interviewed", fillcolor="#8ec7f0"] ;
286 -> 308 ;
309 [label="gini = 0.0\nsamples = 1\nvalue = [1, 0]\nclass = notInterviewed", fillcolor="#e58139"] ;
308 -> 309 ;
310 [label="CV_note_3 <= 0.5\ngini = 0.35\nsamples = 7\nvalue = [2, 7]\nclass = Interviewed", fillcolor="#72b9ec"] ;
308 -> 310 ;
311 [label="gini = 0.0\nsamples = 2\nvalue = [2, 0]\nclass = notInterviewed", fillcolor="#e58139"] ;
310 -> 311 ;
312 [label="gini = 0.0\nsamples = 5\nvalue = [0, 7]\nclass = Interviewed", fillcolor="#399de5"] ;
310 -> 312 ;
313 [label="ZouI <= 0.5\ngini = 0.44\nsamples = 33\nvalue = [17, 34]\nclass = Interviewed", fillcolor="#9ccef2"] ;
263 -> 313 ;
314 [label="CDI <= 0.5\ngini = 0.39\nsamples = 26\nvalue = [10, 27]\nclass = Interviewed", fillcolor="#82c1ef"] ;
313 -> 314 ;
315 [label="gini = 0.0\nsamples = 3\nvalue = [5, 0]\nclass = notInterviewed", fillcolor="#e58139"] ;
314 -> 315 ;
316 [label="FEMME <= 0.5\ngini = 0.26\nsamples = 23\nvalue = [5, 27]\nclass = Interviewed", fillcolor="#5eafea"] ;
314 -> 316 ;
317 [label="dip_bepcap <= 0.5\ngini = 0.08\nsamples = 16\nvalue = [1, 23]\nclass = Interviewed", fillcolor="#42a1e6"] ;
316 -> 317 ;
318 [label="gini = 0.0\nsamples = 12\nvalue = [0, 17]\nclass = Interviewed", fillcolor="#399de5"] ;
317 -> 318 ;
319 [label="SALREV_SMIC_2 <= 0.5\ngini = 0.24\nsamples = 4\nvalue = [1, 6]\nclass = Interviewed", fillcolor="#5aade9"] ;
317 -> 319 ;
320 [label="gini = 0.0\nsamples = 3\nvalue = [0, 6]\nclass = Interviewed", fillcolor="#399de5"] ;
319 -> 320 ;
321 [label="gini = 0.0\nsamples = 1\nvalue = [1, 0]\nclass = notInterviewed", fillcolor="#e58139"] ;
319 -> 321 ;
322 [label="SALREV_SMIC_2 <= 0.5\ngini = 0.5\nsamples = 7\nvalue = [4, 4]\nclass = notInterviewed", fillcolor="#ffffff"] ;
316 -> 322 ;
323 [label="gini = 0.0\nsamples = 3\nvalue = [3, 0]\nclass = notInterviewed", fillcolor="#e58139"] ;
322 -> 323 ;
324 [label="a50p <= 0.5\ngini = 0.32\nsamples = 4\nvalue = [1, 4]\nclass = Interviewed", fillcolor="#6ab6ec"] ;
322 -> 324 ;
325 [label="gini = 0.0\nsamples = 1\nvalue = [1, 0]\nclass = notInterviewed", fillcolor="#e58139"] ;
324 -> 325 ;
326 [label="gini = 0.0\nsamples = 3\nvalue = [0, 4]\nclass = Interviewed", fillcolor="#399de5"] ;
324 -> 326 ;
327 [label="dip_bac <= 0.5\ngini = 0.5\nsamples = 7\nvalue = [7, 7]\nclass = notInterviewed", fillcolor="#ffffff"] ;
313 -> 327 ;
328 [label="gini = 0.0\nsamples = 3\nvalue = [7, 0]\nclass = notInterviewed", fillcolor="#e58139"] ;
327 -> 328 ;
329 [label="gini = 0.0\nsamples = 4\nvalue = [0, 7]\nclass = Interviewed", fillcolor="#399de5"] ;
327 -> 329 ;
330 [label="gini = 0.0\nsamples = 6\nvalue = [0, 8]\nclass = Interviewed", fillcolor="#399de5"] ;
262 -> 330 ;
331 [label="ZUS_CUCS <= 0.5\ngini = 0.37\nsamples = 85\nvalue = [33, 100]\nclass = Interviewed", fillcolor="#7abdee"] ;
261 -> 331 ;
332 [label="dip_bac <= 0.5\ngini = 0.45\nsamples = 50\nvalue = [27, 53]\nclass = Interviewed", fillcolor="#9ecff2"] ;
331 -> 332 ;
333 [label="CV_inactivite <= 0.5\ngini = 0.5\nsamples = 27\nvalue = [21, 20]\nclass = notInterviewed", fillcolor="#fef9f6"] ;
332 -> 333 ;
334 [label="CV_note_4 <= 0.5\ngini = 0.24\nsamples = 15\nvalue = [18, 3]\nclass = notInterviewed", fillcolor="#e9965a"] ;
333 -> 334 ;
335 [label="SALREV_SMIC_2 <= 0.5\ngini = 0.38\nsamples = 9\nvalue = [9, 3]\nclass = notInterviewed", fillcolor="#eeab7b"] ;
334 -> 335 ;
336 [label="gini = 0.0\nsamples = 5\nvalue = [8, 0]\nclass = notInterviewed", fillcolor="#e58139"] ;
335 -> 336 ;
337 [label="dip_bepcap <= 0.5\ngini = 0.38\nsamples = 4\nvalue = [1, 3]\nclass = Interviewed", fillcolor="#7bbeee"] ;
335 -> 337 ;
338 [label="gini = 0.0\nsamples = 3\nvalue = [0, 3]\nclass = Interviewed", fillcolor="#399de5"] ;
337 -> 338 ;
339 [label="gini = 0.0\nsamples = 1\nvalue = [1, 0]\nclass = notInterviewed", fillcolor="#e58139"] ;
337 -> 339 ;
340 [label="gini = 0.0\nsamples = 6\nvalue = [9, 0]\nclass = notInterviewed", fillcolor="#e58139"] ;
334 -> 340 ;
341 [label="recherche_TLD <= 0.5\ngini = 0.26\nsamples = 12\nvalue = [3, 17]\nclass = Interviewed", fillcolor="#5caeea"] ;
333 -> 341 ;
342 [label="gini = 0.0\nsamples = 10\nvalue = [0, 17]\nclass = Interviewed", fillcolor="#399de5"] ;
341 -> 342 ;
343 [label="gini = 0.0\nsamples = 2\nvalue = [3, 0]\nclass = notInterviewed", fillcolor="#e58139"] ;
341 -> 343 ;
344 [label="FEMME <= 0.5\ngini = 0.26\nsamples = 23\nvalue = [6, 33]\nclass = Interviewed", fillcolor="#5dafea"] ;
332 -> 344 ;
345 [label="CV_formation_ <= 0.62\ngini = 0.32\nsamples = 6\nvalue = [2, 8]\nclass = Interviewed", fillcolor="#6ab6ec"] ;
344 -> 345 ;
346 [label="gini = 0.0\nsamples = 1\nvalue = [2, 0]\nclass = notInterviewed", fillcolor="#e58139"] ;
345 -> 346 ;
347 [label="gini = 0.0\nsamples = 5\nvalue = [0, 8]\nclass = Interviewed", fillcolor="#399de5"] ;
345 -> 347 ;
348 [label="a3049 <= 0.5\ngini = 0.24\nsamples = 17\nvalue = [4, 25]\nclass = Interviewed", fillcolor="#59ade9"] ;
344 -> 348 ;
349 [label="gini = 0.0\nsamples = 6\nvalue = [0, 12]\nclass = Interviewed", fillcolor="#399de5"] ;
348 -> 349 ;
350 [label="CV_experience_3p <= 0.5\ngini = 0.36\nsamples = 11\nvalue = [4, 13]\nclass = Interviewed", fillcolor="#76bbed"] ;
348 -> 350 ;
351 [label="CV_formation_ <= 0.88\ngini = 0.32\nsamples = 6\nvalue = [2, 8]\nclass = Interviewed", fillcolor="#6ab6ec"] ;
350 -> 351 ;
352 [label="gini = 0.0\nsamples = 1\nvalue = [2, 0]\nclass = notInterviewed", fillcolor="#e58139"] ;
351 -> 352 ;
353 [label="gini = 0.0\nsamples = 5\nvalue = [0, 8]\nclass = Interviewed", fillcolor="#399de5"] ;
351 -> 353 ;
354 [label="CV_inactivite <= 0.5\ngini = 0.41\nsamples = 5\nvalue = [2, 5]\nclass = Interviewed", fillcolor="#88c4ef"] ;
350 -> 354 ;
355 [label="gini = 0.0\nsamples = 1\nvalue = [2, 0]\nclass = notInterviewed", fillcolor="#e58139"] ;
354 -> 355 ;
356 [label="gini = 0.0\nsamples = 4\nvalue = [0, 5]\nclass = Interviewed", fillcolor="#399de5"] ;
354 -> 356 ;
357 [label="FEMME <= 0.5\ngini = 0.2\nsamples = 35\nvalue = [6, 47]\nclass = Interviewed", fillcolor="#52aae8"] ;
331 -> 357 ;
358 [label="a3049 <= 0.5\ngini = 0.49\nsamples = 6\nvalue = [3, 4]\nclass = Interviewed", fillcolor="#cee6f8"] ;
357 -> 358 ;
359 [label="CV_experience_3p <= 0.5\ngini = 0.32\nsamples = 4\nvalue = [1, 4]\nclass = Interviewed", fillcolor="#6ab6ec"] ;
358 -> 359 ;
360 [label="gini = 0.0\nsamples = 3\nvalue = [0, 4]\nclass = Interviewed", fillcolor="#399de5"] ;
359 -> 360 ;
361 [label="gini = 0.0\nsamples = 1\nvalue = [1, 0]\nclass = notInterviewed", fillcolor="#e58139"] ;
359 -> 361 ;
362 [label="gini = 0.0\nsamples = 2\nvalue = [2, 0]\nclass = notInterviewed", fillcolor="#e58139"] ;
358 -> 362 ;
363 [label="CV_experience_ <= 0.71\ngini = 0.12\nsamples = 29\nvalue = [3, 43]\nclass = Interviewed", fillcolor="#47a4e7"] ;
357 -> 363 ;
364 [label="gini = 0.0\nsamples = 17\nvalue = [0, 27]\nclass = Interviewed", fillcolor="#399de5"] ;
363 -> 364 ;
365 [label="recherche_LD <= 0.5\ngini = 0.27\nsamples = 12\nvalue = [3, 16]\nclass = Interviewed", fillcolor="#5eafea"] ;
363 -> 365 ;
366 [label="a3049 <= 0.5\ngini = 0.11\nsamples = 10\nvalue = [1, 16]\nclass = Interviewed", fillcolor="#45a3e7"] ;
365 -> 366 ;
367 [label="gini = 0.0\nsamples = 9\nvalue = [0, 16]\nclass = Interviewed", fillcolor="#399de5"] ;
366 -> 367 ;
368 [label="gini = 0.0\nsamples = 1\nvalue = [1, 0]\nclass = notInterviewed", fillcolor="#e58139"] ;
366 -> 368 ;
369 [label="gini = 0.0\nsamples = 2\nvalue = [2, 0]\nclass = notInterviewed", fillcolor="#e58139"] ;
365 -> 369 ;
370 [label="CV_note_2 <= 0.5\ngini = 0.5\nsamples = 80\nvalue = [61, 72]\nclass = Interviewed", fillcolor="#e1f0fb"] ;
260 -> 370 ;
371 [label="recherche_LD <= 0.5\ngini = 0.48\nsamples = 74\nvalue = [49, 72]\nclass = Interviewed", fillcolor="#c0e0f7"] ;
370 -> 371 ;
372 [label="CV_formation_ <= 0.62\ngini = 0.46\nsamples = 65\nvalue = [39, 68]\nclass = Interviewed", fillcolor="#abd5f4"] ;
371 -> 372 ;
373 [label="etudes_etranger <= 0.5\ngini = 0.09\nsamples = 12\nvalue = [1, 19]\nclass = Interviewed", fillcolor="#43a2e6"] ;
372 -> 373 ;
374 [label="gini = 0.0\nsamples = 11\nvalue = [0, 19]\nclass = Interviewed", fillcolor="#399de5"] ;
373 -> 374 ;
375 [label="gini = 0.0\nsamples = 1\nvalue = [1, 0]\nclass = notInterviewed", fillcolor="#e58139"] ;
373 -> 375 ;
376 [label="cadre <= 0.5\ngini = 0.49\nsamples = 53\nvalue = [38, 49]\nclass = Interviewed", fillcolor="#d3e9f9"] ;
372 -> 376 ;
377 [label="CV_formation_ <= 0.88\ngini = 0.48\nsamples = 50\nvalue = [33, 49]\nclass = Interviewed", fillcolor="#bedff7"] ;
376 -> 377 ;
378 [label="ZUS_CUCS <= 0.5\ngini = 0.47\nsamples = 15\nvalue = [18, 11]\nclass = notInterviewed", fillcolor="#f5ceb2"] ;
377 -> 378 ;
379 [label="gini = 0.0\nsamples = 4\nvalue = [15, 0]\nclass = notInterviewed", fillcolor="#e58139"] ;
378 -> 379 ;
380 [label="CV_experience_3p <= 0.5\ngini = 0.34\nsamples = 11\nvalue = [3, 11]\nclass = Interviewed", fillcolor="#6fb8ec"] ;
378 -> 380 ;
381 [label="gini = 0.0\nsamples = 3\nvalue = [3, 0]\nclass = notInterviewed", fillcolor="#e58139"] ;
380 -> 381 ;
382 [label="gini = 0.0\nsamples = 8\nvalue = [0, 11]\nclass = Interviewed", fillcolor="#399de5"] ;
380 -> 382 ;
383 [label="dip_bac2 <= 0.5\ngini = 0.41\nsamples = 35\nvalue = [15, 38]\nclass = Interviewed", fillcolor="#87c4ef"] ;
377 -> 383 ;
384 [label="effent_200plus <= 0.5\ngini = 0.48\nsamples = 23\nvalue = [15, 23]\nclass = Interviewed", fillcolor="#baddf6"] ;
383 -> 384 ;
385 [label="langue_anglais <= 0.5\ngini = 0.33\nsamples = 14\nvalue = [5, 19]\nclass = Interviewed", fillcolor="#6db7ec"] ;
384 -> 385 ;
386 [label="CV_experience_3p <= 0.5\ngini = 0.33\nsamples = 10\nvalue = [4, 15]\nclass = Interviewed", fillcolor="#6eb7ec"] ;
385 -> 386 ;
387 [label="CV_note_3 <= 0.5\ngini = 0.21\nsamples = 9\nvalue = [2, 15]\nclass = Interviewed", fillcolor="#53aae8"] ;
386 -> 387 ;
388 [label="service_m <= 0.5\ngini = 0.35\nsamples = 4\nvalue = [2, 7]\nclass = Interviewed", fillcolor="#72b9ec"] ;
387 -> 388 ;
389 [label="gini = 0.0\nsamples = 1\nvalue = [2, 0]\nclass = notInterviewed", fillcolor="#e58139"] ;
388 -> 389 ;
390 [label="gini = 0.0\nsamples = 3\nvalue = [0, 7]\nclass = Interviewed", fillcolor="#399de5"] ;
388 -> 390 ;
391 [label="gini = 0.0\nsamples = 5\nvalue = [0, 8]\nclass = Interviewed", fillcolor="#399de5"] ;
387 -> 391 ;
392 [label="gini = 0.0\nsamples = 1\nvalue = [2, 0]\nclass = notInterviewed", fillcolor="#e58139"] ;
386 -> 392 ;
393 [label="SALREV_SMIC_2 <= 0.5\ngini = 0.32\nsamples = 4\nvalue = [1, 4]\nclass = Interviewed", fillcolor="#6ab6ec"] ;
385 -> 393 ;
394 [label="gini = 0.0\nsamples = 3\nvalue = [0, 4]\nclass = Interviewed", fillcolor="#399de5"] ;
393 -> 394 ;
395 [label="gini = 0.0\nsamples = 1\nvalue = [1, 0]\nclass = notInterviewed", fillcolor="#e58139"] ;
393 -> 395 ;
396 [label="service_nm <= 0.5\ngini = 0.41\nsamples = 9\nvalue = [10, 4]\nclass = notInterviewed", fillcolor="#efb388"] ;
384 -> 396 ;
397 [label="gini = 0.0\nsamples = 5\nvalue = [8, 0]\nclass = notInterviewed", fillcolor="#e58139"] ;
396 -> 397 ;
398 [label="CV_note_5 <= 0.5\ngini = 0.44\nsamples = 4\nvalue = [2, 4]\nclass = Interviewed", fillcolor="#9ccef2"] ;
396 -> 398 ;
399 [label="gini = 0.0\nsamples = 3\nvalue = [0, 4]\nclass = Interviewed", fillcolor="#399de5"] ;
398 -> 399 ;
400 [label="gini = 0.0\nsamples = 1\nvalue = [2, 0]\nclass = notInterviewed", fillcolor="#e58139"] ;
398 -> 400 ;
401 [label="gini = 0.0\nsamples = 12\nvalue = [0, 15]\nclass = Interviewed", fillcolor="#399de5"] ;
383 -> 401 ;
402 [label="gini = 0.0\nsamples = 3\nvalue = [5, 0]\nclass = notInterviewed", fillcolor="#e58139"] ;
376 -> 402 ;
403 [label="CV_formation_ <= 0.88\ngini = 0.41\nsamples = 9\nvalue = [10, 4]\nclass = notInterviewed", fillcolor="#efb388"] ;
371 -> 403 ;
404 [label="gini = 0.0\nsamples = 5\nvalue = [8, 0]\nclass = notInterviewed", fillcolor="#e58139"] ;
403 -> 404 ;
405 [label="CV_note_3 <= 0.5\ngini = 0.44\nsamples = 4\nvalue = [2, 4]\nclass = Interviewed", fillcolor="#9ccef2"] ;
403 -> 405 ;
406 [label="ZUS_CUCS <= 0.5\ngini = 0.32\nsamples = 3\nvalue = [1, 4]\nclass = Interviewed", fillcolor="#6ab6ec"] ;
405 -> 406 ;
407 [label="gini = 0.0\nsamples = 2\nvalue = [0, 4]\nclass = Interviewed", fillcolor="#399de5"] ;
406 -> 407 ;
408 [label="gini = 0.0\nsamples = 1\nvalue = [1, 0]\nclass = notInterviewed", fillcolor="#e58139"] ;
406 -> 408 ;
409 [label="gini = 0.0\nsamples = 1\nvalue = [1, 0]\nclass = notInterviewed", fillcolor="#e58139"] ;
405 -> 409 ;
410 [label="gini = 0.0\nsamples = 6\nvalue = [12, 0]\nclass = notInterviewed", fillcolor="#e58139"] ;
370 -> 410 ;
411 [label="CV_note_4 <= 0.5\ngini = 0.47\nsamples = 277\nvalue = [269, 161]\nclass = notInterviewed", fillcolor="#f5ccb0"] ;
1 -> 411 ;
412 [label="dip_bac3p <= 0.5\ngini = 0.45\nsamples = 204\nvalue = [215, 113]\nclass = notInterviewed", fillcolor="#f3c3a1"] ;
411 -> 412 ;
413 [label="CV_note_3 <= 0.5\ngini = 0.36\nsamples = 140\nvalue = [162, 51]\nclass = notInterviewed", fillcolor="#eda977"] ;
412 -> 413 ;
414 [label="CNT_sup6m <= 0.5\ngini = 0.46\nsamples = 79\nvalue = [74, 42]\nclass = notInterviewed", fillcolor="#f4c9a9"] ;
413 -> 414 ;
415 [label="CV_qualif_sup <= 0.5\ngini = 0.49\nsamples = 31\nvalue = [20, 27]\nclass = Interviewed", fillcolor="#cce6f8"] ;
414 -> 415 ;
416 [label="construction <= 0.5\ngini = 0.33\nsamples = 24\nvalue = [7, 27]\nclass = Interviewed", fillcolor="#6cb6ec"] ;
415 -> 416 ;
417 [label="effent_200plus <= 0.5\ngini = 0.3\nsamples = 23\nvalue = [6, 27]\nclass = Interviewed", fillcolor="#65b3eb"] ;
416 -> 417 ;
418 [label="gini = 0.0\nsamples = 2\nvalue = [3, 0]\nclass = notInterviewed", fillcolor="#e58139"] ;
417 -> 418 ;
419 [label="CV_experience_ <= 0.29\ngini = 0.18\nsamples = 21\nvalue = [3, 27]\nclass = Interviewed", fillcolor="#4fa8e8"] ;
417 -> 419 ;
420 [label="gini = 0.0\nsamples = 2\nvalue = [2, 0]\nclass = notInterviewed", fillcolor="#e58139"] ;
419 -> 420 ;
421 [label="CV_formation_ <= 0.62\ngini = 0.07\nsamples = 19\nvalue = [1, 27]\nclass = Interviewed", fillcolor="#40a1e6"] ;
419 -> 421 ;
422 [label="gini = 0.0\nsamples = 1\nvalue = [1, 0]\nclass = notInterviewed", fillcolor="#e58139"] ;
421 -> 422 ;
423 [label="gini = 0.0\nsamples = 18\nvalue = [0, 27]\nclass = Interviewed", fillcolor="#399de5"] ;
421 -> 423 ;
424 [label="gini = 0.0\nsamples = 1\nvalue = [1, 0]\nclass = notInterviewed", fillcolor="#e58139"] ;
416 -> 424 ;
425 [label="gini = 0.0\nsamples = 7\nvalue = [13, 0]\nclass = notInterviewed", fillcolor="#e58139"] ;
415 -> 425 ;
426 [label="service_m <= 0.5\ngini = 0.34\nsamples = 48\nvalue = [54, 15]\nclass = notInterviewed", fillcolor="#eca470"] ;
414 -> 426 ;
427 [label="CV_experience_ <= 0.29\ngini = 0.16\nsamples = 22\nvalue = [31, 3]\nclass = notInterviewed", fillcolor="#e88d4c"] ;
426 -> 427 ;
428 [label="CV_formation_ <= 0.62\ngini = 0.4\nsamples = 8\nvalue = [8, 3]\nclass = notInterviewed", fillcolor="#efb083"] ;
427 -> 428 ;
429 [label="gini = 0.0\nsamples = 4\nvalue = [7, 0]\nclass = notInterviewed", fillcolor="#e58139"] ;
428 -> 429 ;
430 [label="ZUS_CUCS <= 0.5\ngini = 0.38\nsamples = 4\nvalue = [1, 3]\nclass = Interviewed", fillcolor="#7bbeee"] ;
428 -> 430 ;
431 [label="gini = 0.0\nsamples = 1\nvalue = [1, 0]\nclass = notInterviewed", fillcolor="#e58139"] ;
430 -> 431 ;
432 [label="gini = 0.0\nsamples = 3\nvalue = [0, 3]\nclass = Interviewed", fillcolor="#399de5"] ;
430 -> 432 ;
433 [label="gini = 0.0\nsamples = 14\nvalue = [23, 0]\nclass = notInterviewed", fillcolor="#e58139"] ;
427 -> 433 ;
434 [label="CV_qualif_sup <= 0.5\ngini = 0.45\nsamples = 26\nvalue = [23, 12]\nclass = notInterviewed", fillcolor="#f3c3a0"] ;
426 -> 434 ;
435 [label="CV_inactivite <= 0.5\ngini = 0.5\nsamples = 18\nvalue = [12, 12]\nclass = notInterviewed", fillcolor="#ffffff"] ;
434 -> 435 ;
436 [label="gini = 0.0\nsamples = 5\nvalue = [6, 0]\nclass = notInterviewed", fillcolor="#e58139"] ;
435 -> 436 ;
437 [label="recherche_LD <= 0.5\ngini = 0.44\nsamples = 13\nvalue = [6, 12]\nclass = Interviewed", fillcolor="#9ccef2"] ;
435 -> 437 ;
438 [label="langue_anglais <= 0.5\ngini = 0.38\nsamples = 11\nvalue = [4, 12]\nclass = Interviewed", fillcolor="#7bbeee"] ;
437 -> 438 ;
439 [label="effent_200plus <= 0.5\ngini = 0.32\nsamples = 10\nvalue = [3, 12]\nclass = Interviewed", fillcolor="#6ab6ec"] ;
438 -> 439 ;
440 [label="CV_formation_ <= 0.88\ngini = 0.14\nsamples = 9\nvalue = [1, 12]\nclass = Interviewed", fillcolor="#49a5e7"] ;
439 -> 440 ;
441 [label="gini = 0.0\nsamples = 8\nvalue = [0, 12]\nclass = Interviewed", fillcolor="#399de5"] ;
440 -> 441 ;
442 [label="gini = 0.0\nsamples = 1\nvalue = [1, 0]\nclass = notInterviewed", fillcolor="#e58139"] ;
440 -> 442 ;
443 [label="gini = 0.0\nsamples = 1\nvalue = [2, 0]\nclass = notInterviewed", fillcolor="#e58139"] ;
439 -> 443 ;
444 [label="gini = 0.0\nsamples = 1\nvalue = [1, 0]\nclass = notInterviewed", fillcolor="#e58139"] ;
438 -> 444 ;
445 [label="gini = 0.0\nsamples = 2\nvalue = [2, 0]\nclass = notInterviewed", fillcolor="#e58139"] ;
437 -> 445 ;
446 [label="gini = 0.0\nsamples = 8\nvalue = [11, 0]\nclass = notInterviewed", fillcolor="#e58139"] ;
434 -> 446 ;
447 [label="langue_autres <= 0.5\ngini = 0.17\nsamples = 61\nvalue = [88, 9]\nclass = notInterviewed", fillcolor="#e88e4d"] ;
413 -> 447 ;
448 [label="a3049 <= 0.5\ngini = 0.13\nsamples = 52\nvalue = [78, 6]\nclass = notInterviewed", fillcolor="#e78b48"] ;
447 -> 448 ;
449 [label="gini = 0.0\nsamples = 25\nvalue = [38, 0]\nclass = notInterviewed", fillcolor="#e58139"] ;
448 -> 449 ;
450 [label="dip_bac <= 0.5\ngini = 0.23\nsamples = 27\nvalue = [40, 6]\nclass = notInterviewed", fillcolor="#e99457"] ;
448 -> 450 ;
451 [label="gini = 0.0\nsamples = 12\nvalue = [21, 0]\nclass = notInterviewed", fillcolor="#e58139"] ;
450 -> 451 ;
452 [label="eoq <= 0.5\ngini = 0.36\nsamples = 15\nvalue = [19, 6]\nclass = notInterviewed", fillcolor="#eda978"] ;
450 -> 452 ;
453 [label="poste_unique <= 0.5\ngini = 0.49\nsamples = 10\nvalue = [8, 6]\nclass = notInterviewed", fillcolor="#f8e0ce"] ;
452 -> 453 ;
454 [label="CDI <= 0.5\ngini = 0.5\nsamples = 9\nvalue = [7, 6]\nclass = notInterviewed", fillcolor="#fbede3"] ;
453 -> 454 ;
455 [label="gini = 0.0\nsamples = 1\nvalue = [1, 0]\nclass = notInterviewed", fillcolor="#e58139"] ;
454 -> 455 ;
456 [label="ZUS_CUCS <= 0.5\ngini = 0.5\nsamples = 8\nvalue = [6, 6]\nclass = notInterviewed", fillcolor="#ffffff"] ;
454 -> 456 ;
457 [label="gini = 0.0\nsamples = 1\nvalue = [3, 0]\nclass = notInterviewed", fillcolor="#e58139"] ;
456 -> 457 ;
458 [label="gini = 0.44\nsamples = 7\nvalue = [3, 6]\nclass = Interviewed", fillcolor="#9ccef2"] ;
456 -> 458 ;
459 [label="gini = 0.0\nsamples = 1\nvalue = [1, 0]\nclass = notInterviewed", fillcolor="#e58139"] ;
453 -> 459 ;
460 [label="gini = 0.0\nsamples = 5\nvalue = [11, 0]\nclass = notInterviewed", fillcolor="#e58139"] ;
452 -> 460 ;
461 [label="CV_qualif_inf <= 0.5\ngini = 0.36\nsamples = 9\nvalue = [10, 3]\nclass = notInterviewed", fillcolor="#eda774"] ;
447 -> 461 ;
462 [label="gini = 0.0\nsamples = 7\nvalue = [10, 0]\nclass = notInterviewed", fillcolor="#e58139"] ;
461 -> 462 ;
463 [label="gini = 0.0\nsamples = 2\nvalue = [0, 3]\nclass = Interviewed", fillcolor="#399de5"] ;
461 -> 463 ;
464 [label="langue_autres <= 0.5\ngini = 0.5\nsamples = 64\nvalue = [53, 62]\nclass = Interviewed", fillcolor="#e2f1fb"] ;
412 -> 464 ;
465 [label="service_nm <= 0.5\ngini = 0.49\nsamples = 36\nvalue = [38, 27]\nclass = notInterviewed", fillcolor="#f7dbc6"] ;
464 -> 465 ;
466 [label="CV_note_3 <= 0.5\ngini = 0.5\nsamples = 30\nvalue = [30, 27]\nclass = notInterviewed", fillcolor="#fcf2eb"] ;
465 -> 466 ;
467 [label="industrie <= 0.5\ngini = 0.42\nsamples = 12\nvalue = [7, 16]\nclass = Interviewed", fillcolor="#90c8f0"] ;
466 -> 467 ;
468 [label="CV_qualif <= 0.5\ngini = 0.5\nsamples = 6\nvalue = [7, 7]\nclass = notInterviewed", fillcolor="#ffffff"] ;
467 -> 468 ;
469 [label="gini = 0.0\nsamples = 3\nvalue = [0, 7]\nclass = Interviewed", fillcolor="#399de5"] ;
468 -> 469 ;
470 [label="gini = 0.0\nsamples = 3\nvalue = [7, 0]\nclass = notInterviewed", fillcolor="#e58139"] ;
468 -> 470 ;
471 [label="gini = 0.0\nsamples = 6\nvalue = [0, 9]\nclass = Interviewed", fillcolor="#399de5"] ;
467 -> 471 ;
472 [label="eoq <= 0.5\ngini = 0.44\nsamples = 18\nvalue = [23, 11]\nclass = notInterviewed", fillcolor="#f1bd98"] ;
466 -> 472 ;
473 [label="ZouI <= 0.5\ngini = 0.49\nsamples = 14\nvalue = [15, 11]\nclass = notInterviewed", fillcolor="#f8ddca"] ;
472 -> 473 ;
474 [label="gini = 0.0\nsamples = 2\nvalue = [3, 0]\nclass = notInterviewed", fillcolor="#e58139"] ;
473 -> 474 ;
475 [label="CNT_sup6m <= 0.5\ngini = 0.5\nsamples = 12\nvalue = [12, 11]\nclass = notInterviewed", fillcolor="#fdf5ef"] ;
473 -> 475 ;
476 [label="a3049 <= 0.5\ngini = 0.39\nsamples = 8\nvalue = [4, 11]\nclass = Interviewed", fillcolor="#81c1ee"] ;
475 -> 476 ;
477 [label="recherche_LD <= 0.5\ngini = 0.34\nsamples = 7\nvalue = [3, 11]\nclass = Interviewed", fillcolor="#6fb8ec"] ;
476 -> 477 ;
478 [label="gini = 0.0\nsamples = 1\nvalue = [3, 0]\nclass = notInterviewed", fillcolor="#e58139"] ;
477 -> 478 ;
479 [label="gini = 0.0\nsamples = 6\nvalue = [0, 11]\nclass = Interviewed", fillcolor="#399de5"] ;
477 -> 479 ;
480 [label="gini = 0.0\nsamples = 1\nvalue = [1, 0]\nclass = notInterviewed", fillcolor="#e58139"] ;
476 -> 480 ;
481 [label="gini = 0.0\nsamples = 4\nvalue = [8, 0]\nclass = notInterviewed", fillcolor="#e58139"] ;
475 -> 481 ;
482 [label="gini = 0.0\nsamples = 4\nvalue = [8, 0]\nclass = notInterviewed", fillcolor="#e58139"] ;
472 -> 482 ;
483 [label="gini = 0.0\nsamples = 6\nvalue = [8, 0]\nclass = notInterviewed", fillcolor="#e58139"] ;
465 -> 483 ;
484 [label="CDI <= 0.5\ngini = 0.42\nsamples = 28\nvalue = [15, 35]\nclass = Interviewed", fillcolor="#8ec7f0"] ;
464 -> 484 ;
485 [label="SALREV_SMIC_2 <= 0.5\ngini = 0.09\nsamples = 12\nvalue = [1, 21]\nclass = Interviewed", fillcolor="#42a2e6"] ;
484 -> 485 ;
486 [label="gini = 0.0\nsamples = 6\nvalue = [0, 15]\nclass = Interviewed", fillcolor="#399de5"] ;
485 -> 486 ;
487 [label="CV_qualif_inf <= 0.5\ngini = 0.24\nsamples = 6\nvalue = [1, 6]\nclass = Interviewed", fillcolor="#5aade9"] ;
485 -> 487 ;
488 [label="gini = 0.0\nsamples = 1\nvalue = [1, 0]\nclass = notInterviewed", fillcolor="#e58139"] ;
487 -> 488 ;
489 [label="gini = 0.0\nsamples = 5\nvalue = [0, 6]\nclass = Interviewed", fillcolor="#399de5"] ;
487 -> 489 ;
490 [label="eoq <= 0.5\ngini = 0.5\nsamples = 16\nvalue = [14, 14]\nclass = notInterviewed", fillcolor="#ffffff"] ;
484 -> 490 ;
491 [label="gini = 0.0\nsamples = 3\nvalue = [5, 0]\nclass = notInterviewed", fillcolor="#e58139"] ;
490 -> 491 ;
492 [label="CV_qualif <= 0.5\ngini = 0.48\nsamples = 13\nvalue = [9, 14]\nclass = Interviewed", fillcolor="#b8dcf6"] ;
490 -> 492 ;
493 [label="FEMME <= 0.5\ngini = 0.35\nsamples = 10\nvalue = [4, 14]\nclass = Interviewed", fillcolor="#72b9ec"] ;
492 -> 493 ;
494 [label="gini = 0.0\nsamples = 2\nvalue = [4, 0]\nclass = notInterviewed", fillcolor="#e58139"] ;
493 -> 494 ;
495 [label="gini = 0.0\nsamples = 8\nvalue = [0, 14]\nclass = Interviewed", fillcolor="#399de5"] ;
493 -> 495 ;
496 [label="gini = 0.0\nsamples = 3\nvalue = [5, 0]\nclass = notInterviewed", fillcolor="#e58139"] ;
492 -> 496 ;
497 [label="poste_unique <= 0.5\ngini = 0.5\nsamples = 73\nvalue = [54, 48]\nclass = notInterviewed", fillcolor="#fcf1e9"] ;
411 -> 497 ;
498 [label="dip_bepcap <= 0.5\ngini = 0.49\nsamples = 11\nvalue = [6, 8]\nclass = Interviewed", fillcolor="#cee6f8"] ;
497 -> 498 ;
499 [label="dip_bac3p <= 0.5\ngini = 0.32\nsamples = 8\nvalue = [2, 8]\nclass = Interviewed", fillcolor="#6ab6ec"] ;
498 -> 499 ;
500 [label="gini = 0.0\nsamples = 2\nvalue = [2, 0]\nclass = notInterviewed", fillcolor="#e58139"] ;
499 -> 500 ;
501 [label="gini = 0.0\nsamples = 6\nvalue = [0, 8]\nclass = Interviewed", fillcolor="#399de5"] ;
499 -> 501 ;
502 [label="gini = 0.0\nsamples = 3\nvalue = [4, 0]\nclass = notInterviewed", fillcolor="#e58139"] ;
498 -> 502 ;
503 [label="dip_bac3p <= 0.5\ngini = 0.5\nsamples = 62\nvalue = [48, 40]\nclass = notInterviewed", fillcolor="#fbeade"] ;
497 -> 503 ;
504 [label="dip_bepcap <= 0.5\ngini = 0.48\nsamples = 42\nvalue = [23, 33]\nclass = Interviewed", fillcolor="#c3e1f7"] ;
503 -> 504 ;
505 [label="dip_bac2 <= 0.5\ngini = 0.5\nsamples = 33\nvalue = [22, 22]\nclass = notInterviewed", fillcolor="#ffffff"] ;
504 -> 505 ;
506 [label="ZouI <= 0.5\ngini = 0.26\nsamples = 13\nvalue = [11, 2]\nclass = notInterviewed", fillcolor="#ea985d"] ;
505 -> 506 ;
507 [label="gini = 0.0\nsamples = 2\nvalue = [0, 2]\nclass = Interviewed", fillcolor="#399de5"] ;
506 -> 507 ;
508 [label="gini = 0.0\nsamples = 11\nvalue = [11, 0]\nclass = notInterviewed", fillcolor="#e58139"] ;
506 -> 508 ;
509 [label="langue_anglais <= 0.5\ngini = 0.46\nsamples = 20\nvalue = [11, 20]\nclass = Interviewed", fillcolor="#a6d3f3"] ;
505 -> 509 ;
510 [label="gini = 0.0\nsamples = 3\nvalue = [5, 0]\nclass = notInterviewed", fillcolor="#e58139"] ;
509 -> 510 ;
511 [label="SALREV_SMIC_2 <= 0.5\ngini = 0.36\nsamples = 17\nvalue = [6, 20]\nclass = Interviewed", fillcolor="#74baed"] ;
509 -> 511 ;
512 [label="CV_experience_3p <= 0.5\ngini = 0.5\nsamples = 9\nvalue = [6, 7]\nclass = Interviewed", fillcolor="#e3f1fb"] ;
511 -> 512 ;
513 [label="gini = 0.0\nsamples = 5\nvalue = [0, 7]\nclass = Interviewed", fillcolor="#399de5"] ;
512 -> 513 ;
514 [label="gini = 0.0\nsamples = 4\nvalue = [6, 0]\nclass = notInterviewed", fillcolor="#e58139"] ;
512 -> 514 ;
515 [label="gini = 0.0\nsamples = 8\nvalue = [0, 13]\nclass = Interviewed", fillcolor="#399de5"] ;
511 -> 515 ;
516 [label="service_m <= 0.5\ngini = 0.15\nsamples = 9\nvalue = [1, 11]\nclass = Interviewed", fillcolor="#4ba6e7"] ;
504 -> 516 ;
517 [label="gini = 0.0\nsamples = 8\nvalue = [0, 11]\nclass = Interviewed", fillcolor="#399de5"] ;
516 -> 517 ;
518 [label="gini = 0.0\nsamples = 1\nvalue = [1, 0]\nclass = notInterviewed", fillcolor="#e58139"] ;
516 -> 518 ;
519 [label="ZUS_CUCS <= 0.5\ngini = 0.34\nsamples = 20\nvalue = [25, 7]\nclass = notInterviewed", fillcolor="#eca470"] ;
503 -> 519 ;
520 [label="gini = 0.0\nsamples = 10\nvalue = [19, 0]\nclass = notInterviewed", fillcolor="#e58139"] ;
519 -> 520 ;
521 [label="service_nm <= 0.5\ngini = 0.5\nsamples = 10\nvalue = [6, 7]\nclass = Interviewed", fillcolor="#e3f1fb"] ;
519 -> 521 ;
522 [label="gini = 0.0\nsamples = 5\nvalue = [5, 0]\nclass = notInterviewed", fillcolor="#e58139"] ;
521 -> 522 ;
523 [label="recherche_LD <= 0.5\ngini = 0.22\nsamples = 5\nvalue = [1, 7]\nclass = Interviewed", fillcolor="#55abe9"] ;
521 -> 523 ;
524 [label="gini = 0.0\nsamples = 1\nvalue = [1, 0]\nclass = notInterviewed", fillcolor="#e58139"] ;
523 -> 524 ;
525 [label="gini = 0.0\nsamples = 4\nvalue = [0, 7]\nclass = Interviewed", fillcolor="#399de5"] ;
523 -> 525 ;
526 [label="CV_inactivite <= 0.66\ngini = 0.5\nsamples = 384\nvalue = [282, 332]\nclass = Interviewed", fillcolor="#e1f0fb"] ;
0 -> 526 [labeldistance=2.5, labelangle=-45, headlabel="False"] ;
527 [label="CV_note_4 <= 0.5\ngini = 0.48\nsamples = 316\nvalue = [209, 298]\nclass = Interviewed", fillcolor="#c4e2f7"] ;
526 -> 527 ;
528 [label="construction <= 0.5\ngini = 0.5\nsamples = 201\nvalue = [151, 159]\nclass = Interviewed", fillcolor="#f5fafe"] ;
527 -> 528 ;
529 [label="poste_unique <= 0.5\ngini = 0.5\nsamples = 195\nvalue = [138, 159]\nclass = Interviewed", fillcolor="#e5f2fc"] ;
528 -> 529 ;
530 [label="gini = 0.0\nsamples = 4\nvalue = [5, 0]\nclass = notInterviewed", fillcolor="#e58139"] ;
529 -> 530 ;
531 [label="CV_qualif <= 0.27\ngini = 0.5\nsamples = 191\nvalue = [133, 159]\nclass = Interviewed", fillcolor="#dfeffb"] ;
529 -> 531 ;
532 [label="recherche_LD <= 0.5\ngini = 0.49\nsamples = 70\nvalue = [62, 48]\nclass = notInterviewed", fillcolor="#f9e3d2"] ;
531 -> 532 ;
533 [label="ZouI <= 0.5\ngini = 0.46\nsamples = 48\nvalue = [45, 26]\nclass = notInterviewed", fillcolor="#f4caab"] ;
532 -> 533 ;
534 [label="a3049 <= 0.5\ngini = 0.36\nsamples = 24\nvalue = [26, 8]\nclass = notInterviewed", fillcolor="#eda876"] ;
533 -> 534 ;
535 [label="gini = 0.0\nsamples = 10\nvalue = [12, 0]\nclass = notInterviewed", fillcolor="#e58139"] ;
534 -> 535 ;
536 [label="SALREV_SMIC_2 <= 0.5\ngini = 0.46\nsamples = 14\nvalue = [14, 8]\nclass = notInterviewed", fillcolor="#f4c9aa"] ;
534 -> 536 ;
537 [label="service_nm <= 0.5\ngini = 0.49\nsamples = 12\nvalue = [11, 8]\nclass = notInterviewed", fillcolor="#f8ddc9"] ;
536 -> 537 ;
538 [label="effent_200plus <= 0.5\ngini = 0.5\nsamples = 10\nvalue = [7, 8]\nclass = Interviewed", fillcolor="#e6f3fc"] ;
537 -> 538 ;
539 [label="gini = 0.0\nsamples = 2\nvalue = [0, 2]\nclass = Interviewed", fillcolor="#399de5"] ;
538 -> 539 ;
540 [label="dip_bac3p <= 0.5\ngini = 0.5\nsamples = 8\nvalue = [7, 6]\nclass = notInterviewed", fillcolor="#fbede3"] ;
538 -> 540 ;
541 [label="gini = 0.0\nsamples = 1\nvalue = [4, 0]\nclass = notInterviewed", fillcolor="#e58139"] ;
540 -> 541 ;
542 [label="CDI <= 0.5\ngini = 0.44\nsamples = 7\nvalue = [3, 6]\nclass = Interviewed", fillcolor="#9ccef2"] ;
540 -> 542 ;
543 [label="gini = 0.0\nsamples = 1\nvalue = [3, 0]\nclass = notInterviewed", fillcolor="#e58139"] ;
542 -> 543 ;
544 [label="gini = 0.0\nsamples = 6\nvalue = [0, 6]\nclass = Interviewed", fillcolor="#399de5"] ;
542 -> 544 ;
545 [label="gini = 0.0\nsamples = 2\nvalue = [4, 0]\nclass = notInterviewed", fillcolor="#e58139"] ;
537 -> 545 ;
546 [label="gini = 0.0\nsamples = 2\nvalue = [3, 0]\nclass = notInterviewed", fillcolor="#e58139"] ;
536 -> 546 ;
547 [label="langue_autres <= 0.5\ngini = 0.5\nsamples = 24\nvalue = [19, 18]\nclass = notInterviewed", fillcolor="#fef8f5"] ;
533 -> 547 ;
548 [label="CV_note_3 <= 0.5\ngini = 0.43\nsamples = 19\nvalue = [8, 18]\nclass = Interviewed", fillcolor="#91c9f1"] ;
547 -> 548 ;
549 [label="dip_bac <= 0.5\ngini = 0.38\nsamples = 17\nvalue = [6, 18]\nclass = Interviewed", fillcolor="#7bbeee"] ;
548 -> 549 ;
550 [label="industrie <= 0.5\ngini = 0.34\nsamples = 16\nvalue = [5, 18]\nclass = Interviewed", fillcolor="#70b8ec"] ;
549 -> 550 ;
551 [label="gini = 0.0\nsamples = 3\nvalue = [4, 0]\nclass = notInterviewed", fillcolor="#e58139"] ;
550 -> 551 ;
552 [label="CV_formation_ <= 0.38\ngini = 0.1\nsamples = 13\nvalue = [1, 18]\nclass = Interviewed", fillcolor="#44a2e6"] ;
550 -> 552 ;
553 [label="CV_note_2 <= 0.5\ngini = 0.24\nsamples = 5\nvalue = [1, 6]\nclass = Interviewed", fillcolor="#5aade9"] ;
552 -> 553 ;
554 [label="gini = 0.0\nsamples = 1\nvalue = [1, 0]\nclass = notInterviewed", fillcolor="#e58139"] ;
553 -> 554 ;
555 [label="gini = 0.0\nsamples = 4\nvalue = [0, 6]\nclass = Interviewed", fillcolor="#399de5"] ;
553 -> 555 ;
556 [label="gini = 0.0\nsamples = 8\nvalue = [0, 12]\nclass = Interviewed", fillcolor="#399de5"] ;
552 -> 556 ;
557 [label="gini = 0.0\nsamples = 1\nvalue = [1, 0]\nclass = notInterviewed", fillcolor="#e58139"] ;
549 -> 557 ;
558 [label="gini = 0.0\nsamples = 2\nvalue = [2, 0]\nclass = notInterviewed", fillcolor="#e58139"] ;
548 -> 558 ;
559 [label="gini = 0.0\nsamples = 5\nvalue = [11, 0]\nclass = notInterviewed", fillcolor="#e58139"] ;
547 -> 559 ;
560 [label="langue_arabe <= 0.5\ngini = 0.49\nsamples = 22\nvalue = [17, 22]\nclass = Interviewed", fillcolor="#d2e9f9"] ;
532 -> 560 ;
561 [label="dip_bac3p <= 0.5\ngini = 0.48\nsamples = 20\nvalue = [14, 22]\nclass = Interviewed", fillcolor="#b7dbf6"] ;
560 -> 561 ;
562 [label="gini = 0.0\nsamples = 6\nvalue = [9, 0]\nclass = notInterviewed", fillcolor="#e58139"] ;
561 -> 562 ;
563 [label="CV_formation_ <= 0.38\ngini = 0.3\nsamples = 14\nvalue = [5, 22]\nclass = Interviewed", fillcolor="#66b3eb"] ;
561 -> 563 ;
564 [label="gini = 0.0\nsamples = 1\nvalue = [1, 0]\nclass = notInterviewed", fillcolor="#e58139"] ;
563 -> 564 ;
565 [label="ZUS_CUCS <= 0.5\ngini = 0.26\nsamples = 13\nvalue = [4, 22]\nclass = Interviewed", fillcolor="#5dafea"] ;
563 -> 565 ;
566 [label="recherche_TLD <= 0.5\ngini = 0.21\nsamples = 12\nvalue = [3, 22]\nclass = Interviewed", fillcolor="#54aae9"] ;
565 -> 566 ;
567 [label="gini = 0.0\nsamples = 11\nvalue = [0, 22]\nclass = Interviewed", fillcolor="#399de5"] ;
566 -> 567 ;
568 [label="gini = 0.0\nsamples = 1\nvalue = [3, 0]\nclass = notInterviewed", fillcolor="#e58139"] ;
566 -> 568 ;
569 [label="gini = 0.0\nsamples = 1\nvalue = [1, 0]\nclass = notInterviewed", fillcolor="#e58139"] ;
565 -> 569 ;
570 [label="gini = 0.0\nsamples = 2\nvalue = [3, 0]\nclass = notInterviewed", fillcolor="#e58139"] ;
560 -> 570 ;
571 [label="CV_note_5 <= 0.5\ngini = 0.48\nsamples = 121\nvalue = [71, 111]\nclass = Interviewed", fillcolor="#b8dcf6"] ;
531 -> 571 ;
572 [label="CV_inactivite <= 0.16\ngini = 0.49\nsamples = 101\nvalue = [67, 89]\nclass = Interviewed", fillcolor="#cee7f9"] ;
571 -> 572 ;
573 [label="langue_arabe <= 0.5\ngini = 0.5\nsamples = 56\nvalue = [45, 45]\nclass = notInterviewed", fillcolor="#ffffff"] ;
572 -> 573 ;
574 [label="CV_experience_ <= 0.86\ngini = 0.5\nsamples = 52\nvalue = [38, 45]\nclass = Interviewed", fillcolor="#e0f0fb"] ;
573 -> 574 ;
575 [label="dip_bac2 <= 0.5\ngini = 0.48\nsamples = 27\nvalue = [25, 17]\nclass = notInterviewed", fillcolor="#f7d7c0"] ;
574 -> 575 ;
576 [label="service_nm <= 0.5\ngini = 0.38\nsamples = 15\nvalue = [18, 6]\nclass = notInterviewed", fillcolor="#eeab7b"] ;
575 -> 576 ;
577 [label="a26m <= 0.5\ngini = 0.46\nsamples = 12\nvalue = [11, 6]\nclass = notInterviewed", fillcolor="#f3c6a5"] ;
576 -> 577 ;
578 [label="recherche_LD <= 0.5\ngini = 0.48\nsamples = 8\nvalue = [4, 6]\nclass = Interviewed", fillcolor="#bddef6"] ;
577 -> 578 ;
579 [label="gini = 0.0\nsamples = 3\nvalue = [4, 0]\nclass = notInterviewed", fillcolor="#e58139"] ;
578 -> 579 ;
580 [label="gini = 0.0\nsamples = 5\nvalue = [0, 6]\nclass = Interviewed", fillcolor="#399de5"] ;
578 -> 580 ;
581 [label="gini = 0.0\nsamples = 4\nvalue = [7, 0]\nclass = notInterviewed", fillcolor="#e58139"] ;
577 -> 581 ;
582 [label="gini = 0.0\nsamples = 3\nvalue = [7, 0]\nclass = notInterviewed", fillcolor="#e58139"] ;
576 -> 582 ;
583 [label="PREN_MUSULMAN <= 0.5\ngini = 0.48\nsamples = 12\nvalue = [7, 11]\nclass = Interviewed", fillcolor="#b7dbf6"] ;
575 -> 583 ;
584 [label="CV_note_2 <= 0.5\ngini = 0.46\nsamples = 8\nvalue = [7, 4]\nclass = notInterviewed", fillcolor="#f4c9aa"] ;
583 -> 584 ;
585 [label="ZouI <= 0.5\ngini = 0.5\nsamples = 6\nvalue = [4, 4]\nclass = notInterviewed", fillcolor="#ffffff"] ;
584 -> 585 ;
586 [label="SALREV_SMIC_2 <= 0.5\ngini = 0.49\nsamples = 5\nvalue = [3, 4]\nclass = Interviewed", fillcolor="#cee6f8"] ;
585 -> 586 ;
587 [label="gini = 0.0\nsamples = 2\nvalue = [3, 0]\nclass = notInterviewed", fillcolor="#e58139"] ;
586 -> 587 ;
588 [label="gini = 0.0\nsamples = 3\nvalue = [0, 4]\nclass = Interviewed", fillcolor="#399de5"] ;
586 -> 588 ;
589 [label="gini = 0.0\nsamples = 1\nvalue = [1, 0]\nclass = notInterviewed", fillcolor="#e58139"] ;
585 -> 589 ;
590 [label="gini = 0.0\nsamples = 2\nvalue = [3, 0]\nclass = notInterviewed", fillcolor="#e58139"] ;
584 -> 590 ;
591 [label="gini = 0.0\nsamples = 4\nvalue = [0, 7]\nclass = Interviewed", fillcolor="#399de5"] ;
583 -> 591 ;
592 [label="recherche_LD <= 0.5\ngini = 0.43\nsamples = 25\nvalue = [13, 28]\nclass = Interviewed", fillcolor="#95caf1"] ;
574 -> 592 ;
593 [label="ZouI <= 0.5\ngini = 0.35\nsamples = 24\nvalue = [8, 28]\nclass = Interviewed", fillcolor="#72b9ec"] ;
592 -> 593 ;
594 [label="dip_bac2 <= 0.5\ngini = 0.5\nsamples = 9\nvalue = [6, 6]\nclass = notInterviewed", fillcolor="#ffffff"] ;
593 -> 594 ;
595 [label="dip_bac2p <= 0.5\ngini = 0.5\nsamples = 8\nvalue = [5, 6]\nclass = Interviewed", fillcolor="#deeffb"] ;
594 -> 595 ;
596 [label="gini = 0.0\nsamples = 1\nvalue = [2, 0]\nclass = notInterviewed", fillcolor="#e58139"] ;
595 -> 596 ;
597 [label="a26m <= 0.5\ngini = 0.44\nsamples = 7\nvalue = [3, 6]\nclass = Interviewed", fillcolor="#9ccef2"] ;
595 -> 597 ;
598 [label="gini = 0.0\nsamples = 1\nvalue = [3, 0]\nclass = notInterviewed", fillcolor="#e58139"] ;
597 -> 598 ;
599 [label="gini = 0.0\nsamples = 6\nvalue = [0, 6]\nclass = Interviewed", fillcolor="#399de5"] ;
597 -> 599 ;
600 [label="gini = 0.0\nsamples = 1\nvalue = [1, 0]\nclass = notInterviewed", fillcolor="#e58139"] ;
594 -> 600 ;
601 [label="CV_note_2 <= 0.5\ngini = 0.15\nsamples = 15\nvalue = [2, 22]\nclass = Interviewed", fillcolor="#4ba6e7"] ;
593 -> 601 ;
602 [label="FEMME <= 0.5\ngini = 0.26\nsamples = 10\nvalue = [2, 11]\nclass = Interviewed", fillcolor="#5dafea"] ;
601 -> 602 ;
603 [label="gini = 0.0\nsamples = 1\nvalue = [2, 0]\nclass = notInterviewed", fillcolor="#e58139"] ;
602 -> 603 ;
604 [label="gini = 0.0\nsamples = 9\nvalue = [0, 11]\nclass = Interviewed", fillcolor="#399de5"] ;
602 -> 604 ;
605 [label="gini = 0.0\nsamples = 5\nvalue = [0, 11]\nclass = Interviewed", fillcolor="#399de5"] ;
601 -> 605 ;
606 [label="gini = 0.0\nsamples = 1\nvalue = [5, 0]\nclass = notInterviewed", fillcolor="#e58139"] ;
592 -> 606 ;
607 [label="gini = 0.0\nsamples = 4\nvalue = [7, 0]\nclass = notInterviewed", fillcolor="#e58139"] ;
573 -> 607 ;
608 [label="a50p <= 0.5\ngini = 0.44\nsamples = 45\nvalue = [22, 44]\nclass = Interviewed", fillcolor="#9ccef2"] ;
572 -> 608 ;
609 [label="dip_bac2p <= 0.5\ngini = 0.43\nsamples = 43\nvalue = [20, 44]\nclass = Interviewed", fillcolor="#93caf1"] ;
608 -> 609 ;
610 [label="recherche_LD <= 0.5\ngini = 0.5\nsamples = 7\nvalue = [6, 6]\nclass = notInterviewed", fillcolor="#ffffff"] ;
609 -> 610 ;
611 [label="SALREV_SMIC_2 <= 0.5\ngini = 0.5\nsamples = 6\nvalue = [5, 6]\nclass = Interviewed", fillcolor="#deeffb"] ;
610 -> 611 ;
612 [label="effent_200plus <= 0.5\ngini = 0.48\nsamples = 5\nvalue = [4, 6]\nclass = Interviewed", fillcolor="#bddef6"] ;
611 -> 612 ;
613 [label="gini = 0.0\nsamples = 3\nvalue = [0, 6]\nclass = Interviewed", fillcolor="#399de5"] ;
612 -> 613 ;
614 [label="gini = 0.0\nsamples = 2\nvalue = [4, 0]\nclass = notInterviewed", fillcolor="#e58139"] ;
612 -> 614 ;
615 [label="gini = 0.0\nsamples = 1\nvalue = [1, 0]\nclass = notInterviewed", fillcolor="#e58139"] ;
611 -> 615 ;
616 [label="gini = 0.0\nsamples = 1\nvalue = [1, 0]\nclass = notInterviewed", fillcolor="#e58139"] ;
610 -> 616 ;
617 [label="recherche_LD <= 0.5\ngini = 0.39\nsamples = 36\nvalue = [14, 38]\nclass = Interviewed", fillcolor="#82c1ef"] ;
609 -> 617 ;
618 [label="CDI <= 0.5\ngini = 0.48\nsamples = 27\nvalue = [14, 22]\nclass = Interviewed", fillcolor="#b7dbf6"] ;
617 -> 618 ;
619 [label="gini = 0.0\nsamples = 9\nvalue = [0, 12]\nclass = Interviewed", fillcolor="#399de5"] ;
618 -> 619 ;
620 [label="service_nm <= 0.5\ngini = 0.49\nsamples = 18\nvalue = [14, 10]\nclass = notInterviewed", fillcolor="#f8dbc6"] ;
618 -> 620 ;
621 [label="a26m <= 0.5\ngini = 0.5\nsamples = 16\nvalue = [9, 10]\nclass = Interviewed", fillcolor="#ebf5fc"] ;
620 -> 621 ;
622 [label="ZouI <= 0.5\ngini = 0.22\nsamples = 7\nvalue = [7, 1]\nclass = notInterviewed", fillcolor="#e99355"] ;
621 -> 622 ;
623 [label="a3049 <= 0.5\ngini = 0.24\nsamples = 6\nvalue = [6, 1]\nclass = notInterviewed", fillcolor="#e9965a"] ;
622 -> 623 ;
624 [label="gini = 0.0\nsamples = 1\nvalue = [0, 1]\nclass = Interviewed", fillcolor="#399de5"] ;
623 -> 624 ;
625 [label="gini = 0.0\nsamples = 5\nvalue = [6, 0]\nclass = notInterviewed", fillcolor="#e58139"] ;
623 -> 625 ;
626 [label="gini = 0.0\nsamples = 1\nvalue = [1, 0]\nclass = notInterviewed", fillcolor="#e58139"] ;
622 -> 626 ;
627 [label="FEMME <= 0.5\ngini = 0.3\nsamples = 9\nvalue = [2, 9]\nclass = Interviewed", fillcolor="#65b3eb"] ;
621 -> 627 ;
628 [label="gini = 0.0\nsamples = 1\nvalue = [1, 0]\nclass = notInterviewed", fillcolor="#e58139"] ;
627 -> 628 ;
629 [label="dip_bac2 <= 0.5\ngini = 0.18\nsamples = 8\nvalue = [1, 9]\nclass = Interviewed", fillcolor="#4fa8e8"] ;
627 -> 629 ;
630 [label="gini = 0.0\nsamples = 1\nvalue = [1, 0]\nclass = notInterviewed", fillcolor="#e58139"] ;
629 -> 630 ;
631 [label="gini = 0.0\nsamples = 7\nvalue = [0, 9]\nclass = Interviewed", fillcolor="#399de5"] ;
629 -> 631 ;
632 [label="gini = 0.0\nsamples = 2\nvalue = [5, 0]\nclass = notInterviewed", fillcolor="#e58139"] ;
620 -> 632 ;
633 [label="gini = 0.0\nsamples = 9\nvalue = [0, 16]\nclass = Interviewed", fillcolor="#399de5"] ;
617 -> 633 ;
634 [label="gini = 0.0\nsamples = 2\nvalue = [2, 0]\nclass = notInterviewed", fillcolor="#e58139"] ;
608 -> 634 ;
635 [label="ZouI <= 0.5\ngini = 0.26\nsamples = 20\nvalue = [4, 22]\nclass = Interviewed", fillcolor="#5dafea"] ;
571 -> 635 ;
636 [label="service_m <= 0.5\ngini = 0.35\nsamples = 15\nvalue = [4, 14]\nclass = Interviewed", fillcolor="#72b9ec"] ;
635 -> 636 ;
637 [label="recherche_TLD <= 0.5\ngini = 0.2\nsamples = 8\nvalue = [1, 8]\nclass = Interviewed", fillcolor="#52a9e8"] ;
636 -> 637 ;
638 [label="service_nm <= 0.5\ngini = 0.32\nsamples = 5\nvalue = [1, 4]\nclass = Interviewed", fillcolor="#6ab6ec"] ;
637 -> 638 ;
639 [label="gini = 0.0\nsamples = 2\nvalue = [0, 2]\nclass = Interviewed", fillcolor="#399de5"] ;
638 -> 639 ;
640 [label="a3049 <= 0.5\ngini = 0.44\nsamples = 3\nvalue = [1, 2]\nclass = Interviewed", fillcolor="#9ccef2"] ;
638 -> 640 ;
641 [label="gini = 0.0\nsamples = 2\nvalue = [0, 2]\nclass = Interviewed", fillcolor="#399de5"] ;
640 -> 641 ;
642 [label="gini = 0.0\nsamples = 1\nvalue = [1, 0]\nclass = notInterviewed", fillcolor="#e58139"] ;
640 -> 642 ;
643 [label="gini = 0.0\nsamples = 3\nvalue = [0, 4]\nclass = Interviewed", fillcolor="#399de5"] ;
637 -> 643 ;
644 [label="a3049 <= 0.5\ngini = 0.44\nsamples = 7\nvalue = [3, 6]\nclass = Interviewed", fillcolor="#9ccef2"] ;
636 -> 644 ;
645 [label="a26m <= 0.5\ngini = 0.38\nsamples = 6\nvalue = [2, 6]\nclass = Interviewed", fillcolor="#7bbeee"] ;
644 -> 645 ;
646 [label="gini = 0.0\nsamples = 5\nvalue = [0, 6]\nclass = Interviewed", fillcolor="#399de5"] ;
645 -> 646 ;
647 [label="gini = 0.0\nsamples = 1\nvalue = [2, 0]\nclass = notInterviewed", fillcolor="#e58139"] ;
645 -> 647 ;
648 [label="gini = 0.0\nsamples = 1\nvalue = [1, 0]\nclass = notInterviewed", fillcolor="#e58139"] ;
644 -> 648 ;
649 [label="gini = 0.0\nsamples = 5\nvalue = [0, 8]\nclass = Interviewed", fillcolor="#399de5"] ;
635 -> 649 ;
650 [label="gini = 0.0\nsamples = 6\nvalue = [13, 0]\nclass = notInterviewed", fillcolor="#e58139"] ;
528 -> 650 ;
651 [label="PREN_MUSULMAN <= 0.5\ngini = 0.42\nsamples = 115\nvalue = [58, 139]\nclass = Interviewed", fillcolor="#8cc6f0"] ;
527 -> 651 ;
652 [label="poste_unique <= 0.5\ngini = 0.38\nsamples = 100\nvalue = [46, 131]\nclass = Interviewed", fillcolor="#7fbfee"] ;
651 -> 652 ;
653 [label="gini = 0.0\nsamples = 4\nvalue = [0, 8]\nclass = Interviewed", fillcolor="#399de5"] ;
652 -> 653 ;
654 [label="effent_200plus <= 0.5\ngini = 0.4\nsamples = 96\nvalue = [46, 123]\nclass = Interviewed", fillcolor="#83c2ef"] ;
652 -> 654 ;
655 [label="a50p <= 0.5\ngini = 0.5\nsamples = 26\nvalue = [23, 21]\nclass = notInterviewed", fillcolor="#fdf4ee"] ;
654 -> 655 ;
656 [label="recherche_LD <= 0.5\ngini = 0.5\nsamples = 18\nvalue = [13, 15]\nclass = Interviewed", fillcolor="#e5f2fc"] ;
655 -> 656 ;
657 [label="industrie <= 0.5\ngini = 0.39\nsamples = 11\nvalue = [11, 4]\nclass = notInterviewed", fillcolor="#eeaf81"] ;
656 -> 657 ;
658 [label="gini = 0.0\nsamples = 3\nvalue = [5, 0]\nclass = notInterviewed", fillcolor="#e58139"] ;
657 -> 658 ;
659 [label="CDI <= 0.5\ngini = 0.48\nsamples = 8\nvalue = [6, 4]\nclass = notInterviewed", fillcolor="#f6d5bd"] ;
657 -> 659 ;
660 [label="gini = 0.0\nsamples = 4\nvalue = [5, 0]\nclass = notInterviewed", fillcolor="#e58139"] ;
659 -> 660 ;
661 [label="FEMME <= 0.5\ngini = 0.32\nsamples = 4\nvalue = [1, 4]\nclass = Interviewed", fillcolor="#6ab6ec"] ;
659 -> 661 ;
662 [label="gini = 0.0\nsamples = 1\nvalue = [1, 0]\nclass = notInterviewed", fillcolor="#e58139"] ;
661 -> 662 ;
663 [label="gini = 0.0\nsamples = 3\nvalue = [0, 4]\nclass = Interviewed", fillcolor="#399de5"] ;
661 -> 663 ;
664 [label="dip_bac2p <= 0.5\ngini = 0.26\nsamples = 7\nvalue = [2, 11]\nclass = Interviewed", fillcolor="#5dafea"] ;
656 -> 664 ;
665 [label="gini = 0.0\nsamples = 6\nvalue = [0, 11]\nclass = Interviewed", fillcolor="#399de5"] ;
664 -> 665 ;
666 [label="gini = 0.0\nsamples = 1\nvalue = [2, 0]\nclass = notInterviewed", fillcolor="#e58139"] ;
664 -> 666 ;
667 [label="ZouI <= 0.5\ngini = 0.47\nsamples = 8\nvalue = [10, 6]\nclass = notInterviewed", fillcolor="#f5cdb0"] ;
655 -> 667 ;
668 [label="recherche_LD <= 0.5\ngini = 0.24\nsamples = 5\nvalue = [1, 6]\nclass = Interviewed", fillcolor="#5aade9"] ;
667 -> 668 ;
669 [label="gini = 0.0\nsamples = 4\nvalue = [0, 6]\nclass = Interviewed", fillcolor="#399de5"] ;
668 -> 669 ;
670 [label="gini = 0.0\nsamples = 1\nvalue = [1, 0]\nclass = notInterviewed", fillcolor="#e58139"] ;
668 -> 670 ;
671 [label="gini = 0.0\nsamples = 3\nvalue = [9, 0]\nclass = notInterviewed", fillcolor="#e58139"] ;
667 -> 671 ;
672 [label="ZUS_CUCS <= 0.5\ngini = 0.3\nsamples = 70\nvalue = [23, 102]\nclass = Interviewed", fillcolor="#66b3eb"] ;
654 -> 672 ;
673 [label="langue_anglais <= 0.5\ngini = 0.26\nsamples = 54\nvalue = [15, 82]\nclass = Interviewed", fillcolor="#5dafea"] ;
672 -> 673 ;
674 [label="dip_bac <= 0.5\ngini = 0.43\nsamples = 16\nvalue = [10, 22]\nclass = Interviewed", fillcolor="#93caf1"] ;
673 -> 674 ;
675 [label="gini = 0.0\nsamples = 5\nvalue = [10, 0]\nclass = notInterviewed", fillcolor="#e58139"] ;
674 -> 675 ;
676 [label="gini = 0.0\nsamples = 11\nvalue = [0, 22]\nclass = Interviewed", fillcolor="#399de5"] ;
674 -> 676 ;
677 [label="ZouI <= 0.5\ngini = 0.14\nsamples = 38\nvalue = [5, 60]\nclass = Interviewed", fillcolor="#49a5e7"] ;
673 -> 677 ;
678 [label="dip_bac2 <= 0.5\ngini = 0.03\nsamples = 35\nvalue = [1, 60]\nclass = Interviewed", fillcolor="#3c9fe5"] ;
677 -> 678 ;
679 [label="CNT_sup6m <= 0.5\ngini = 0.06\nsamples = 19\nvalue = [1, 32]\nclass = Interviewed", fillcolor="#3fa0e6"] ;
678 -> 679 ;
680 [label="gini = 0.0\nsamples = 4\nvalue = [0, 6]\nclass = Interviewed", fillcolor="#399de5"] ;
679 -> 680 ;
681 [label="industrie <= 0.5\ngini = 0.07\nsamples = 15\nvalue = [1, 26]\nclass = Interviewed", fillcolor="#41a1e6"] ;
679 -> 681 ;
682 [label="CV_qualif <= 0.5\ngini = 0.1\nsamples = 11\nvalue = [1, 18]\nclass = Interviewed", fillcolor="#44a2e6"] ;
681 -> 682 ;
683 [label="gini = 0.0\nsamples = 4\nvalue = [0, 6]\nclass = Interviewed", fillcolor="#399de5"] ;
682 -> 683 ;
684 [label="dip_bac <= 0.5\ngini = 0.14\nsamples = 7\nvalue = [1, 12]\nclass = Interviewed", fillcolor="#49a5e7"] ;
682 -> 684 ;
685 [label="gini = 0.0\nsamples = 6\nvalue = [0, 12]\nclass = Interviewed", fillcolor="#399de5"] ;
684 -> 685 ;
686 [label="gini = 0.0\nsamples = 1\nvalue = [1, 0]\nclass = notInterviewed", fillcolor="#e58139"] ;
684 -> 686 ;
687 [label="gini = 0.0\nsamples = 4\nvalue = [0, 8]\nclass = Interviewed", fillcolor="#399de5"] ;
681 -> 687 ;
688 [label="gini = 0.0\nsamples = 16\nvalue = [0, 28]\nclass = Interviewed", fillcolor="#399de5"] ;
678 -> 688 ;
689 [label="gini = 0.0\nsamples = 3\nvalue = [4, 0]\nclass = notInterviewed", fillcolor="#e58139"] ;
677 -> 689 ;
690 [label="CV_experience_3p <= 0.5\ngini = 0.41\nsamples = 16\nvalue = [8, 20]\nclass = Interviewed", fillcolor="#88c4ef"] ;
672 -> 690 ;
691 [label="CV_experience_ <= 0.29\ngini = 0.09\nsamples = 11\nvalue = [1, 20]\nclass = Interviewed", fillcolor="#43a2e6"] ;
690 -> 691 ;
692 [label="gini = 0.0\nsamples = 1\nvalue = [1, 0]\nclass = notInterviewed", fillcolor="#e58139"] ;
691 -> 692 ;
693 [label="gini = 0.0\nsamples = 10\nvalue = [0, 20]\nclass = Interviewed", fillcolor="#399de5"] ;
691 -> 693 ;
694 [label="gini = 0.0\nsamples = 5\nvalue = [7, 0]\nclass = notInterviewed", fillcolor="#e58139"] ;
690 -> 694 ;
695 [label="recherche_LD <= 0.5\ngini = 0.48\nsamples = 15\nvalue = [12, 8]\nclass = notInterviewed", fillcolor="#f6d5bd"] ;
651 -> 695 ;
696 [label="gini = 0.0\nsamples = 8\nvalue = [8, 0]\nclass = notInterviewed", fillcolor="#e58139"] ;
695 -> 696 ;
697 [label="dip_bac <= 0.5\ngini = 0.44\nsamples = 7\nvalue = [4, 8]\nclass = Interviewed", fillcolor="#9ccef2"] ;
695 -> 697 ;
698 [label="langue_autres <= 0.5\ngini = 0.2\nsamples = 5\nvalue = [1, 8]\nclass = Interviewed", fillcolor="#52a9e8"] ;
697 -> 698 ;
699 [label="gini = 0.0\nsamples = 4\nvalue = [0, 8]\nclass = Interviewed", fillcolor="#399de5"] ;
698 -> 699 ;
700 [label="gini = 0.0\nsamples = 1\nvalue = [1, 0]\nclass = notInterviewed", fillcolor="#e58139"] ;
698 -> 700 ;
701 [label="gini = 0.0\nsamples = 2\nvalue = [3, 0]\nclass = notInterviewed", fillcolor="#e58139"] ;
697 -> 701 ;
702 [label="CV_note_5 <= 0.5\ngini = 0.43\nsamples = 68\nvalue = [73, 34]\nclass = notInterviewed", fillcolor="#f1bc95"] ;
526 -> 702 ;
703 [label="CV_qualif_inf <= 0.5\ngini = 0.47\nsamples = 57\nvalue = [55, 34]\nclass = notInterviewed", fillcolor="#f5cfb3"] ;
702 -> 703 ;
704 [label="CV_note_3 <= 0.5\ngini = 0.49\nsamples = 49\nvalue = [44, 34]\nclass = notInterviewed", fillcolor="#f9e2d2"] ;
703 -> 704 ;
705 [label="industrie <= 0.5\ngini = 0.5\nsamples = 46\nvalue = [38, 34]\nclass = notInterviewed", fillcolor="#fcf2ea"] ;
704 -> 705 ;
706 [label="CV_qualif_sup <= 0.5\ngini = 0.49\nsamples = 38\nvalue = [24, 31]\nclass = Interviewed", fillcolor="#d2e9f9"] ;
705 -> 706 ;
707 [label="dip_bac2p <= 0.5\ngini = 0.48\nsamples = 24\nvalue = [22, 14]\nclass = notInterviewed", fillcolor="#f6d1b7"] ;
706 -> 707 ;
708 [label="gini = 0.0\nsamples = 5\nvalue = [8, 0]\nclass = notInterviewed", fillcolor="#e58139"] ;
707 -> 708 ;
709 [label="CNT_sup6m <= 0.5\ngini = 0.5\nsamples = 19\nvalue = [14, 14]\nclass = notInterviewed", fillcolor="#ffffff"] ;
707 -> 709 ;
710 [label="a3049 <= 0.5\ngini = 0.32\nsamples = 7\nvalue = [2, 8]\nclass = Interviewed", fillcolor="#6ab6ec"] ;
709 -> 710 ;
711 [label="gini = 0.0\nsamples = 1\nvalue = [2, 0]\nclass = notInterviewed", fillcolor="#e58139"] ;
710 -> 711 ;
712 [label="gini = 0.0\nsamples = 6\nvalue = [0, 8]\nclass = Interviewed", fillcolor="#399de5"] ;
710 -> 712 ;
713 [label="ZouI <= 0.5\ngini = 0.44\nsamples = 12\nvalue = [12, 6]\nclass = notInterviewed", fillcolor="#f2c09c"] ;
709 -> 713 ;
714 [label="gini = 0.0\nsamples = 4\nvalue = [8, 0]\nclass = notInterviewed", fillcolor="#e58139"] ;
713 -> 714 ;
715 [label="CDI <= 0.5\ngini = 0.48\nsamples = 8\nvalue = [4, 6]\nclass = Interviewed", fillcolor="#bddef6"] ;
713 -> 715 ;
716 [label="service_nm <= 0.5\ngini = 0.44\nsamples = 7\nvalue = [3, 6]\nclass = Interviewed", fillcolor="#9ccef2"] ;
715 -> 716 ;
717 [label="gini = 0.0\nsamples = 2\nvalue = [2, 0]\nclass = notInterviewed", fillcolor="#e58139"] ;
716 -> 717 ;
718 [label="SALREV_SMIC_2 <= 0.5\ngini = 0.24\nsamples = 5\nvalue = [1, 6]\nclass = Interviewed", fillcolor="#5aade9"] ;
716 -> 718 ;
719 [label="gini = 0.0\nsamples = 4\nvalue = [0, 6]\nclass = Interviewed", fillcolor="#399de5"] ;
718 -> 719 ;
720 [label="gini = 0.0\nsamples = 1\nvalue = [1, 0]\nclass = notInterviewed", fillcolor="#e58139"] ;
718 -> 720 ;
721 [label="gini = 0.0\nsamples = 1\nvalue = [1, 0]\nclass = notInterviewed", fillcolor="#e58139"] ;
715 -> 721 ;
722 [label="CDI <= 0.5\ngini = 0.19\nsamples = 14\nvalue = [2, 17]\nclass = Interviewed", fillcolor="#50a9e8"] ;
706 -> 722 ;
723 [label="gini = 0.0\nsamples = 1\nvalue = [1, 0]\nclass = notInterviewed", fillcolor="#e58139"] ;
722 -> 723 ;
724 [label="etudes_etranger <= 0.5\ngini = 0.1\nsamples = 13\nvalue = [1, 17]\nclass = Interviewed", fillcolor="#45a3e7"] ;
722 -> 724 ;
725 [label="a26m <= 0.5\ngini = 0.14\nsamples = 9\nvalue = [1, 12]\nclass = Interviewed", fillcolor="#49a5e7"] ;
724 -> 725 ;
726 [label="effent_200plus <= 0.5\ngini = 0.2\nsamples = 6\nvalue = [1, 8]\nclass = Interviewed", fillcolor="#52a9e8"] ;
725 -> 726 ;
727 [label="gini = 0.0\nsamples = 1\nvalue = [1, 0]\nclass = notInterviewed", fillcolor="#e58139"] ;
726 -> 727 ;
728 [label="gini = 0.0\nsamples = 5\nvalue = [0, 8]\nclass = Interviewed", fillcolor="#399de5"] ;
726 -> 728 ;
729 [label="gini = 0.0\nsamples = 3\nvalue = [0, 4]\nclass = Interviewed", fillcolor="#399de5"] ;
725 -> 729 ;
730 [label="gini = 0.0\nsamples = 4\nvalue = [0, 5]\nclass = Interviewed", fillcolor="#399de5"] ;
724 -> 730 ;
731 [label="SALREV_SMIC_2 <= 0.5\ngini = 0.29\nsamples = 8\nvalue = [14, 3]\nclass = notInterviewed", fillcolor="#eb9c63"] ;
705 -> 731 ;
732 [label="gini = 0.0\nsamples = 4\nvalue = [11, 0]\nclass = notInterviewed", fillcolor="#e58139"] ;
731 -> 732 ;
733 [label="dip_bac <= 0.5\ngini = 0.5\nsamples = 4\nvalue = [3, 3]\nclass = notInterviewed", fillcolor="#ffffff"] ;
731 -> 733 ;
734 [label="gini = 0.0\nsamples = 1\nvalue = [3, 0]\nclass = notInterviewed", fillcolor="#e58139"] ;
733 -> 734 ;
735 [label="gini = 0.0\nsamples = 3\nvalue = [0, 3]\nclass = Interviewed", fillcolor="#399de5"] ;
733 -> 735 ;
736 [label="gini = 0.0\nsamples = 3\nvalue = [6, 0]\nclass = notInterviewed", fillcolor="#e58139"] ;
704 -> 736 ;
737 [label="gini = 0.0\nsamples = 8\nvalue = [11, 0]\nclass = notInterviewed", fillcolor="#e58139"] ;
703 -> 737 ;
738 [label="gini = 0.0\nsamples = 11\nvalue = [18, 0]\nclass = notInterviewed", fillcolor="#e58139"] ;
702 -> 738 ;
}